-0.23622436821 0.28708586097 -0.00811079331 -0.21488331258 0.08642881364 -0.21841073036 0.07653180510 0.07756338269 -0.06881993264 -0.05729039758 0.19359308481 -0.29188093543 0.30625435710 -0.15752398968 -0.12187843770 0.29262551665 -0.26543709636 0.08161992580 0.31710165739 -0.08624273539 -0.24499714375 0.04261504114 0.21872949600 -0.27453035116 -0.43413588405 -0.00008358323 0.42108806968 0.47433876991 0.43594583869 0.41744109988 -0.05969878659 -0.11751875281 -0.16329810023 -0.41883081198 -0.35748881102 -0.26878035069 -0.16572055221 -0.34347391129 -0.23174856603 0.20069709420 0.17504107952 0.09686800092 0.06259460747 0.16636556387 0.01964082010 0.03448439762 0.06444825232 -0.07408548892 0.00388074666 0.03450101614 -0.07923135161 -0.14268183708 0.08479318023 0.00395679986 0.01003844570 -0.08878212422 -0.01881555468 -0.09160824120 0.08641533554 0.09421470761 0.01215925440 0.08723910898 -0.16301332414 -0.88719904423 -0.56776010990 0.36200481653 -0.44190469384 -0.32896396518 0.18707858026 0.02149208821 0.17705453932 0.27069595456 -0.26435062289 -0.20674709976 -0.43570744991 -0.07708305866 0.40090093017 -0.05559229478 0.14873777330 0.21339882910 0.08397161216 0.31035056710 -0.13166072965 -0.30486753583 0.32168364525 -0.27045279741 -0.09152770787 -0.27680903673 -0.14390189946 0.45657899976 -0.44634404778 -0.23269359767 0.19513793290 0.18396544456 0.11585588753 -0.19896148145 0.24999034405 0.15317009389 0.00580500485 -0.34296420217 -0.16583392024 0.34176692367 0.06349532306 0.41703623533 -0.12555736303 0.03403688222 0.08463568985 -0.33653092384 -0.03667637333 0.04636510462 0.09585145861 0.07238784432 0.18077862263 -0.01766624488 -0.19811896980 -0.21519859135 0.00107467221 0.28532764316 0.06518976390 0.33434545994 0.41927948594 -0.42240759730 -0.05360732973 -0.15250815451 -0.80644917488 -0.26632916927 -0.46152582765 -0.03135758638 -0.33069181442 -0.26774013042 0.29560995102 -0.17243653536 -0.07592536509 0.29093790054 0.25786024332 0.31280374527 -0.00652462151 -0.29937407374 0.21604003012 0.18007966876 -0.39131188393 0.21349036694 -0.01421110518 -0.21573060751 -0.13037523627 0.03834848478 0.10256334394 0.10242256522 -0.15585032105 -0.12148975581 0.02481444925 0.11287468672 0.01156604569 -0.21388758719 -0.00039912172 0.24065959454 -0.32497167587 -0.05556482449 0.38754898310 -0.33639353514 0.11899383366 0.21204641461 0.24843312800 -0.22283308208 -0.30112749338 0.35302823782 0.00457520131 -0.32781320810 0.23509965837 0.12394582480 -0.15365420282 -0.15218918025 -0.11381737143 0.19546473026 0.50843524933 -0.25644156337 0.10893693566 0.11635114253 -0.25276198983 -0.23474523425 -0.13830828667 0.07906971127 0.07288749516 -0.03311230987 -0.02848688141 0.04668345302 0.00953073427 0.06719347090 -0.09424129874 -0.00868305936 0.05488808453 -0.24080350995 -0.12413381040 0.19167564809 0.17914260924 -0.00616821786 -0.13590808213 -0.06118534505 -1.15528023243 -0.47085970640 0.14565065503 -0.42649981380 0.10285552591 0.04616411030 0.03527225554 0.34612795711 0.33491915464 -0.25200602412 -0.13360117376 0.03915426880 -0.09544388205 -0.16409720480 -0.10718744248 0.25790047646 0.38225397468 0.10864845663 -0.05315481499 0.40553888679 -0.28132465482 0.14096945524 0.23197264969 -0.35826757550 0.17631119490 -0.09019038081 -0.18185012043 -0.31658959389 0.22581101954 0.16022558510 -0.38157877326 0.30609589815 0.04425922781 -0.26004701853 0.29117280245 -0.04569521546 0.04878095537 0.02429669537 -0.01320680045 -0.04641158879 0.07232983410 -0.04496822506 -0.07028757036 -0.11234940588 -0.01035953220 0.12980057299 -0.03871738538 -0.14893651009 -0.15375483036 0.40581205487 -0.09599558264 -0.36702913046 0.22400769591 0.04327278584 -0.17018824816 -0.22280830145 0.39804241061 -0.07230575383 -0.23988744617 0.31073182821 0.06542132050 -0.33199459314 0.26212856174 -0.08635025471 0.08690049499 0.00188434753 -0.08630792797 -0.04953644425 -0.05488470569 0.01948176883 0.06392036378 -0.06409204751 0.09507913888 0.14052855968 -0.35397046804 0.04707246646 0.32794454694 -0.28250527382 -0.26470226049 0.19870653749 0.06412871182 0.10669362545 -0.07283584028 -0.05214975774 -0.08223631233 0.14261695743 0.06344599277 -0.03582859784 -0.05935749412 0.00309632951 0.12304687500 -0.15966796875 -0.09863281250 -0.17773437500 -0.25927734375 -0.24511718750 0.04052734375 -0.10888671875 -0.04541015625 -0.20703125000 -0.12890625000 0.11181640625 -0.00878906250 0.15380859375 -0.21679687500 -0.33691406250 0.08300781250 -0.13330078125 0.02636718750 -0.27685546875 -0.10742187500 0.27197265625 -0.19140625000 0.31689453125 0.00683593750 -0.28320312500 0.10107421875 -0.15576171875 0.12255859375 -0.17138671875 0.03613281250 0.14453125000 0.12792968750 0.00683593750 -0.01513671875 -0.30957031250 -0.11523437500 -0.13232421875 -0.03857421875 -0.14404296875 -0.00292968750 0.31884765625 0.23291015625 -0.04003906250 0.10839843750 -0.17529296875 -0.32910156250 -0.14062500000 -0.17871093750 -0.01855468750 0.04248046875 0.04589843750 0.07812500000 0.06640625000 -0.09521484375 -0.12744140625 -0.00976562500 -0.19335937500 -0.04931640625 0.00341796875 0.01171875000 0.03369140625 0.18359375000 0.05664062500 -0.07763671875 -0.19628906250 -0.18164062500 -0.16015625000 0.31250000000 -0.08300781250 -0.05615234375 0.13818359375 -0.14404296875 -0.09130859375 0.07128906250 -0.24853515625 0.03857421875 -0.04296875000 0.22558593750 0.00927734375 -0.06494140625 0.08398437500 -0.02929687500 0.20410156250 -0.28906250000 -0.01367187500 0.08544921875 0.10791015625 -0.14257812500 -0.07812500000 0.24365234375 0.17675781250 0.00927734375 -0.39550781250 -0.35888671875 0.11767578125 0.12988281250 0.01562500000 -0.18652343750 0.04443359375 0.09667968750 0.26513671875 -0.23388671875 0.08105468750 -0.06591796875 0.11425781250 0.02490234375 0.02636718750 -0.08203125000 0.04443359375 0.11718750000 0.06005859375 -0.10449218750 -0.02343750000 -0.09472656250 0.08886718750 -0.09326171875 -0.06054687500 -0.05078125000 0.00341796875 0.01953125000 -0.19628906250 -0.12158203125 0.02490234375 -0.22070312500 0.00878906250 -0.28369140625 -0.10302734375 0.12255859375 0.08789062500 0.08398437500 -0.15087890625 -0.04589843750 -0.20117187500 -0.18505859375 -0.29296875000 -0.05029296875 -0.26806640625 0.08398437500 -0.26904296875 -0.08300781250 -0.01904296875 0.10156250000 0.03808593750 0.00927734375 -0.37597656250 -0.00683593750 -0.19433593750 -0.00341796875 -0.23242187500 -0.02490234375 0.06982421875 0.04296875000 0.05957031250 -0.14355468750 -0.39843750000 0.01513671875 -0.16259765625 0.01562500000 -0.11962890625 -0.10351562500 -0.01416015625 -0.04443359375 0.06005859375 0.02099609375 -0.22607421875 0.06054687500 -0.18066406250 -0.03955078125 -0.21875000000 -0.09326171875 0.13867187500 0.07324218750 -0.08447265625 0.06103515625 -0.12548828125 -0.08398437500 -0.25927734375 -0.00830078125 -0.02587890625 -0.02490234375 0.09619140625 0.00537109375 -0.00585937500 0.03466796875 -0.09814453125 0.02246093750 -0.08984375000 0.03125000000 -0.02343750000 -0.05908203125 0.04052734375 -0.07714843750 -0.10058593750 0.17187500000 -0.13134765625 0.06689453125 -0.04248046875 -0.15820312500 0.00341796875 -0.13232421875 0.14746093750 -0.13037109375 -0.15820312500 0.08496093750 -0.05957031250 0.13671875000 -0.01318359375 0.11181640625 0.05322265625 -0.06835937500 -0.01513671875 -0.05029296875 0.02392578125 -0.01806640625 0.04833984375 0.03662109375 0.02929687500 0.08349609375 0.03466796875 -0.04003906250 -0.09960937500 -0.21240234375 -0.06640625000 -0.00537109375 -0.05859375000 0.27490234375 -0.05468750000 -0.04736328125 0.12158203125 0.05175781250 0.04589843750 0.11083984375 -0.06982421875 -0.16601562500 0.13183593750 -0.08935546875 -0.02197265625 -0.01611328125 0.01806640625 0.01269531250 -0.04394531250 -0.11376953125 -0.03125000000 -0.09033203125 0.01123046875 0.03027343750 -0.01123046875 -0.01904296875 0.14892578125 -0.00683593750 -0.24267578125 -0.38134765625 -0.17919921875 -0.10986328125 -0.05957031250 -0.18408203125 0.02587890625 0.13574218750 0.13330078125 0.02539062500 -0.03222656250 -0.00390625000 -0.24023437500 -0.20898437500 -0.09130859375 -0.00781250000 -0.36181640625 0.09765625000 -0.40087890625 0.04443359375 0.05468750000 0.03173828125 -0.09033203125 -0.01171875000 -0.25781250000 -0.04345703125 -0.24853515625 0.02587890625 -0.27734375000 -0.05957031250 0.09228515625 -0.01220703125 0.07958984375 0.01171875000 -0.33056640625 0.05078125000 -0.20166015625 0.05957031250 -0.05371093750 -0.08398437500 0.05615234375 0.04052734375 -0.02050781250 -0.01708984375 -0.24707031250 0.07568359375 -0.19140625000 0.07080078125 -0.07373046875 -0.06494140625 0.06152343750 -0.08398437500 -0.05859375000 -0.01953125000 -0.10937500000 0.11914062500 -0.29736328125 0.09472656250 -0.03955078125 -0.01464843750 0.11621093750 0.02978515625 0.00878906250 -0.10107421875 -0.04882812500 0.06689453125 -0.05224609375 0.04931640625 -0.13574218750 -0.03759765625 0.06347656250 0.01953125000 0.00292968750 0.05224609375 -0.06835937500 0.00488281250 -0.03857421875 -0.06005859375 0.04541015625 -0.24804687500 0.03466796875 0.04492187500 0.08154296875 -0.11181640625 0.00097656250 0.09375000000 0.03417968750 -0.00976562500 -0.03271484375 -0.08349609375 0.10693359375 0.05224609375 0.08349609375 -0.10986328125 -0.04980468750 -0.02246093750 -0.05712890625 0.12011718750 0.16210937500 0.03857421875 -0.01074218750 -0.06689453125 0.04296875000 -0.05761718750 0.05810546875 0.01757812500 -0.08398437500 -0.00341796875 0.06982421875 -0.18798828125 0.10400390625 -0.04589843750 -0.00634765625 -0.12451171875 0.02294921875 0.20556640625 -0.02197265625 0.05322265625 0.05419921875 -0.10693359375 -0.09521484375 0.00976562500 -0.36914062500 -0.13183593750 -0.00488281250 0.04052734375 -0.05664062500 0.13476562500 0.14111328125 0.05126953125 -0.35498046875 -0.33056640625 -0.05029296875 -0.34033203125 -0.04492187500 -0.09521484375 -0.07324218750 0.05175781250 0.16308593750 0.12646484375 0.01513671875 0.02392578125 -0.24902343750 -0.08593750000 -0.09814453125 0.01660156250 -0.15966796875 -0.06933593750 -0.50634765625 0.08886718750 0.03076171875 0.08105468750 -0.02490234375 -0.02539062500 -0.39794921875 -0.04687500000 -0.17138671875 0.00000000000 -0.16503906250 -0.00439453125 0.07373046875 0.01611328125 0.10937500000 -0.00146484375 -0.41552734375 -0.05712890625 -0.21923828125 0.02539062500 0.00292968750 0.11962890625 0.07080078125 0.00292968750 -0.06835937500 -0.02050781250 -0.25830078125 0.05615234375 -0.27197265625 0.06152343750 -0.06542968750 -0.05029296875 0.08642578125 -0.08447265625 0.04541015625 -0.01513671875 -0.14306640625 0.05126953125 -0.14746093750 0.06005859375 -0.04833984375 -0.00683593750 0.06396484375 0.09228515625 0.03222656250 -0.07275390625 -0.00390625000 -0.00244140625 -0.10693359375 -0.00732421875 -0.09130859375 0.02148437500 -0.01416015625 -0.02001953125 -0.02001953125 0.02392578125 0.03125000000 -0.01464843750 -0.04785156250 -0.11816406250 0.00927734375 -0.03564453125 -0.05712890625 0.04541015625 0.05322265625 -0.12890625000 -0.01855468750 -0.04882812500 0.07080078125 0.00146484375 0.00927734375 -0.13134765625 0.01855468750 -0.05322265625 0.09521484375 0.00439453125 -0.05859375000 0.06250000000 0.12597656250 0.03271484375 -0.06689453125 -0.04882812500 0.00195312500 0.01220703125 0.01806640625 -0.07568359375 0.07373046875 0.04882812500 -0.00781250000 -0.02441406250 0.06054687500 0.04980468750 -0.02099609375 0.06396484375 -0.08642578125 -0.02783203125 -0.12353515625 -0.03662109375 0.06884765625 0.06005859375 0.00244140625 -0.00488281250 -0.04150390625 -0.04296875000 -0.24414062500 -0.15136718750 -0.00146484375 0.03662109375 0.04101562500 0.11816406250 0.00585937500 0.03955078125 -0.34765625000 -0.24365234375 -0.35107421875 -0.36914062500 0.01123046875 -0.11914062500 -0.16210937500 0.15869140625 0.25000000000 0.08105468750 -0.11718750000 0.07177734375 -0.11181640625 -0.08447265625 -0.30566406250 -0.00634765625 -0.09912109375 -0.01464843750 -0.48193359375 0.08691406250 0.01562500000 0.03320312500 -0.07812500000 0.05078125000 -0.20605468750 -0.03369140625 -0.22607421875 0.01416015625 -0.23388671875 -0.03808593750 0.08251953125 0.02246093750 0.07861328125 0.06884765625 -0.22314453125 -0.03369140625 -0.23095703125 0.02880859375 -0.18066406250 -0.00097656250 0.01269531250 0.03613281250 -0.05029296875 -0.01953125000 -0.18847656250 0.02832031250 -0.13281250000 0.09619140625 -0.16406250000 0.02587890625 0.04345703125 -0.07617187500 0.00146484375 0.06689453125 -0.15478515625 0.01611328125 -0.06445312500 0.02294921875 -0.01318359375 -0.07275390625 0.01953125000 -0.09570312500 0.00830078125 -0.01171875000 0.02001953125 0.03759765625 -0.06542968750 0.05712890625 -0.03417968750 -0.02001953125 0.10742187500 -0.02050781250 -0.01464843750 0.04443359375 0.10009765625 -0.06103515625 -0.02343750000 -0.14062500000 -0.00732421875 -0.09667968750 -0.10595703125 0.04101562500 -0.01904296875 -0.09960937500 -0.15527343750 -0.00927734375 0.13330078125 0.02734375000 0.02832031250 0.02490234375 0.08984375000 0.04589843750 -0.06298828125 -0.03466796875 -0.11376953125 -0.06347656250 0.08105468750 0.01318359375 0.02050781250 0.01220703125 -0.17822265625 -0.02001953125 0.02246093750 -0.05371093750 -0.05126953125 0.07861328125 -0.11865234375 0.00000000000 0.18945312500 0.08740234375 -0.02343750000 -0.03125000000 0.03027343750 -0.02685546875 0.00488281250 -0.02441406250 -0.01513671875 0.01904296875 0.02197265625 -0.00195312500 -0.00146484375 0.11474609375 -0.27294921875 -0.01953125000 0.06884765625 -0.09570312500 0.04443359375 -0.00048828125 0.00146484375 -0.23876953125 -0.17333984375 -0.11572265625 -0.25634765625 -0.35791015625 -0.09277343750 0.01708984375 0.04638671875 0.15771484375 0.14501953125 0.09863281250 0.02441406250 -0.01611328125 0.10302734375 0.01855468750 -0.14355468750 -0.04785156250 -0.08154296875 -0.01708984375 -0.43164062500 0.01708984375 -0.01660156250 -0.01611328125 -0.00390625000 0.09375000000 0.04785156250 0.00732421875 -0.21093750000 0.05468750000 -0.19042968750 -0.07470703125 -0.00097656250 -0.01416015625 -0.07666015625 0.08496093750 -0.10595703125 0.04443359375 -0.11230468750 0.00146484375 -0.20458984375 0.02099609375 0.02490234375 0.00976562500 0.01757812500 -0.06152343750 -0.05566406250 0.02587890625 -0.05468750000 0.01513671875 -0.10351562500 -0.01269531250 -0.03613281250 0.01318359375 -0.03222656250 -0.01513671875 -0.04248046875 0.03955078125 -0.09570312500 0.06787109375 0.00439453125 0.07910156250 -0.04248046875 -0.06005859375 -0.01757812500 0.04003906250 0.02441406250 -0.07080078125 -0.09814453125 0.02001953125 0.06884765625 -0.00830078125 0.09912109375 -0.01269531250 -0.00976562500 0.04248046875 0.08398437500 -0.00195312500 0.02783203125 -0.03955078125 0.04638671875 -0.04687500000 -0.04687500000 0.07128906250 -0.07324218750 0.06689453125 0.00976562500 -0.05712890625 -0.02783203125 -0.06542968750 0.11572265625 0.07373046875 0.04785156250 0.01660156250 -0.10546875000 -0.03027343750 -0.00927734375 0.05126953125 0.01123046875 -0.01269531250 0.04296875000 -0.01806640625 -0.02636718750 0.04492187500 -0.05273437500 -0.01904296875 -0.02343750000 -0.01220703125 0.05029296875 -0.10156250000 0.03222656250 0.04638671875 -0.04150390625 -0.02832031250 -0.10107421875 0.03710937500 0.00488281250 0.03320312500 -0.02880859375 -0.02441406250 0.08251953125 -0.04150390625 -0.05175781250 -0.01806640625 -0.21484375000 0.02978515625 -0.10595703125 -0.11376953125 0.06542968750 0.05371093750 0.07470703125 -0.36621093750 -0.22753906250 -0.02197265625 -0.03369140625 -0.14599609375 -0.25781250000 0.08984375000 0.16601562500 0.00634765625 0.14648437500 0.00878906250 0.07226562500 0.03955078125 0.11865234375 -0.01025390625 0.06787109375 -0.12353515625 -0.06347656250 -0.00878906250 0.01074218750 -0.08349609375 0.01171875000 -0.03466796875 -0.06347656250 0.12695312500 -0.02636718750 0.01757812500 -0.13867187500 0.01220703125 -0.10302734375 -0.01611328125 0.02197265625 -0.04199218750 -0.08740234375 0.05908203125 0.13671875000 0.05761718750 -0.19189453125 0.03271484375 -0.00781250000 0.02050781250 -0.07666015625 0.00439453125 -0.01513671875 -0.00390625000 0.02197265625 0.04345703125 -0.02490234375 0.06494140625 -0.05908203125 0.05371093750 0.02685546875 -0.08300781250 0.04101562500 -0.04833984375 0.07958984375 -0.04833984375 -0.11962890625 0.03710937500 0.00195312500 0.04150390625 -0.13037109375 0.04052734375 0.10156250000 -0.14501953125 -0.08691406250 -0.02783203125 -0.01269531250 -0.01171875000 0.04248046875 -0.06738281250 -0.10009765625 -0.04296875000 0.03515625000 0.06787109375 0.01953125000 -0.05224609375 0.01806640625 0.01074218750 -0.00976562500 0.08496093750 0.02832031250 0.04736328125 -0.05322265625 -0.03076171875 0.08447265625 -0.08691406250 0.04345703125 -0.06298828125 0.04443359375 0.09814453125 0.00537109375 -0.12255859375 -0.06396484375 -0.00146484375 -0.04882812500 0.07568359375 -0.06201171875 0.00146484375 0.06445312500 -0.04931640625 0.03417968750 -0.03808593750 0.00732421875 -0.03759765625 0.00537109375 0.08691406250 0.02246093750 0.03076171875 -0.03613281250 0.03271484375 0.02099609375 -0.00195312500 -0.26318359375 0.00976562500 0.16503906250 0.04150390625 -0.04736328125 0.01757812500 -0.05468750000 0.01025390625 0.01611328125 -0.02050781250 -0.02148437500 0.07031250000 -0.02783203125 -0.06689453125 0.06054687500 -0.05859375000 0.01123046875 -0.22802734375 -0.15136718750 -0.21386718750 -0.06445312500 -0.03173828125 -0.14306640625 0.07617187500 0.17382812500 0.14257812500 0.00390625000 0.03564453125 -0.05029296875 -0.01611328125 0.04492187500 -0.02636718750 0.11474609375 -0.01953125000 -0.12646484375 -0.04589843750 0.05859375000 -0.09765625000 0.00878906250 0.00537109375 -0.01953125000 0.02099609375 0.09033203125 -0.01171875000 -0.08154296875 0.00634765625 -0.11669921875 -0.02539062500 -0.01220703125 -0.00097656250 -0.08007812500 0.02490234375 0.13769531250 0.09326171875 -0.17431640625 -0.00927734375 -0.10986328125 -0.01318359375 0.01123046875 0.02880859375 0.02246093750 0.02783203125 0.02099609375 0.01464843750 -0.04101562500 0.10205078125 -0.17480468750 0.05078125000 0.05322265625 -0.05273437500 0.00537109375 -0.03759765625 -0.00146484375 0.01708984375 -0.06738281250 -0.07031250000 0.00781250000 -0.07080078125 -0.03271484375 0.03613281250 0.02197265625 0.00146484375 0.00537109375 -0.01513671875 -0.05322265625 -0.00292968750 0.01513671875 -0.01025390625 -0.09716796875 -0.05810546875 0.01025390625 0.02880859375 -0.04931640625 -0.02978515625 0.02197265625 -0.11669921875 0.12500000000 -0.00537109375 -0.00878906250 0.00244140625 -0.05615234375 0.01611328125 -0.09423828125 -0.03173828125 0.01025390625 -0.02734375000 0.10693359375 -0.02832031250 -0.05859375000 -0.04980468750 -0.00048828125 0.06494140625 -0.00292968750 0.00585937500 -0.04248046875 0.07080078125 0.01367187500 -0.04199218750 -0.03759765625 -0.09130859375 -0.02832031250 0.03271484375 -0.00927734375 0.06982421875 0.00292968750 0.03710937500 -0.02783203125 -0.08593750000 0.06396484375 0.05126953125 -0.20117187500 0.06054687500 0.02978515625 0.02001953125 0.03417968750 0.00292968750 0.02880859375 0.08056640625 0.06494140625 -0.08203125000 -0.04003906250 0.06250000000 0.12695312500 -0.07080078125 -0.08837890625 -0.02441406250 -0.03759765625 -0.18603515625 -0.28906250000 -0.08300781250 -0.14160156250 -0.07763671875 -0.17480468750 -0.03564453125 0.24707031250 0.18945312500 -0.01318359375 -0.01513671875 0.07031250000 -0.09667968750 -0.04589843750 -0.02832031250 0.05712890625 -0.00830078125 -0.11474609375 0.01171875000 0.13671875000 0.05224609375 -0.05664062500 -0.06250000000 -0.07177734375 0.01025390625 0.06201171875 0.01806640625 -0.13232421875 0.00683593750 0.06787109375 0.03710937500 -0.00488281250 -0.00976562500 0.03710937500 0.03564453125 0.13574218750 -0.00048828125 -0.03466796875 -0.01171875000 -0.20800781250 0.02539062500 -0.07861328125 -0.02783203125 -0.00048828125 -0.04589843750 -0.06250000000 -0.00390625000 0.08203125000 0.03369140625 -0.13671875000 0.02539062500 -0.03125000000 -0.02197265625 0.03515625000 -0.06787109375 0.01513671875 -0.02099609375 0.00195312500 0.05957031250 -0.04833984375 -0.05908203125 -0.05029296875 0.01123046875 0.00927734375 -0.00976562500 0.01806640625 0.04296875000 0.04443359375 -0.05175781250 -0.01464843750 0.05224609375 -0.12695312500 0.00585937500 0.05761718750 0.01611328125 -0.07275390625 -0.06152343750 0.05615234375 0.02490234375 0.02343750000 -0.01660156250 -0.03125000000 0.06201171875 -0.11328125000 0.06396484375 -0.00488281250 0.02929687500 0.07421875000 -0.06787109375 -0.01269531250 -0.02343750000 -0.00537109375 -0.00683593750 0.03320312500 -0.10156250000 0.01171875000 0.05810546875 -0.00097656250 0.00488281250 -0.02490234375 -0.00341796875 -0.15869140625 -0.06005859375 -0.08203125000 0.13134765625 -0.00927734375 0.04052734375 0.09570312500 -0.07568359375 -0.05224609375 0.08642578125 0.03173828125 -0.02343750000 -0.08935546875 0.00341796875 0.03417968750 -0.06445312500 0.01269531250 -0.13085937500 0.00000000000 0.00488281250 -0.09716796875 -0.07812500000 0.04687500000 0.00097656250 0.02636718750 -0.08105468750 -0.02050781250 -0.00732421875 0.09619140625 -0.11767578125 0.02539062500 -0.04882812500 -0.32177734375 -0.06835937500 -0.10009765625 -0.03955078125 0.06738281250 0.03857421875 0.09277343750 -0.10595703125 0.02783203125 -0.05712890625 -0.02294921875 -0.01367187500 0.00244140625 -0.07324218750 0.09179687500 0.09375000000 0.00000000000 -0.02832031250 -0.02929687500 0.03369140625 0.04931640625 0.00830078125 0.13232421875 0.00000000000 -0.01171875000 0.04199218750 -0.21142578125 0.01220703125 -0.10107421875 0.00976562500 -0.06884765625 0.00976562500 -0.02392578125 0.08105468750 0.00830078125 -0.05712890625 -0.02343750000 0.07617187500 -0.02685546875 0.00488281250 0.03906250000 -0.04931640625 -0.08789062500 -0.03417968750 0.12451171875 -0.06054687500 -0.12451171875 0.03515625000 -0.00097656250 -0.06005859375 0.05712890625 -0.06298828125 -0.11962890625 0.02148437500 0.11328125000 -0.03076171875 -0.14794921875 -0.06152343750 -0.08251953125 0.08837890625 0.08251953125 -0.01367187500 -0.14257812500 0.03076171875 0.07470703125 -0.00390625000 -0.09375000000 0.03173828125 -0.25000000000 0.00244140625 -0.00488281250 0.01757812500 -0.12109375000 0.00048828125 0.18750000000 0.02832031250 -0.16503906250 -0.00439453125 -0.05810546875 -0.02978515625 -0.04345703125 0.04296875000 -0.12500000000 0.02148437500 0.10058593750 -0.01123046875 0.00195312500 0.00390625000 0.02148437500 0.02343750000 0.04345703125 -0.12451171875 -0.06054687500 0.03417968750 0.15771484375 -0.03906250000 -0.06787109375 0.01660156250 -0.14550781250 0.01855468750 -0.02880859375 0.01757812500 0.00537109375 0.03271484375 -0.01904296875 -0.01953125000 0.03369140625 -0.01757812500 0.02783203125 0.05957031250 -0.10644531250 0.00439453125 -0.07373046875 0.03466796875 0.09082031250 0.01171875000 0.00048828125 -0.11865234375 -0.00195312500 -0.08056640625 0.03173828125 0.05175781250 -0.00781250000 -0.03222656250 0.04199218750 0.00195312500 -0.00830078125 -0.05908203125 -0.09667968750 -0.11083984375 -0.39843750000 0.12695312500 0.06005859375 -0.07080078125 -0.12060546875 0.08740234375 0.15527343750 -0.05224609375 -0.01025390625 -0.05908203125 -0.11816406250 -0.00488281250 0.11376953125 -0.01855468750 0.00781250000 0.11132812500 -0.04638671875 0.04248046875 -0.02783203125 -0.01757812500 -0.00341796875 -0.01953125000 0.00000000000 -0.01123046875 0.05859375000 0.03906250000 -0.17578125000 -0.00537109375 -0.01464843750 -0.01367187500 -0.07666015625 0.02197265625 0.07666015625 0.00048828125 -0.01123046875 0.01220703125 -0.12646484375 0.08007812500 -0.08837890625 0.04248046875 0.04101562500 -0.09667968750 -0.08886718750 -0.02685546875 0.12988281250 -0.08984375000 -0.12597656250 -0.02783203125 -0.04150390625 0.03173828125 0.08007812500 -0.01269531250 0.03027343750 -0.01025390625 0.03759765625 -0.04199218750 -0.07763671875 0.05175781250 -0.11865234375 0.07714843750 0.08007812500 -0.07324218750 -0.17871093750 0.01416015625 0.05566406250 -0.08789062500 0.05664062500 0.01464843750 -0.23339843750 0.11718750000 0.10449218750 -0.01123046875 -0.20507812500 -0.04833984375 0.22851562500 0.03955078125 -0.10986328125 -0.05517578125 0.04931640625 0.03564453125 0.03173828125 -0.00634765625 -0.22314453125 -0.05908203125 0.21972656250 -0.04589843750 -0.07128906250 -0.03369140625 0.03173828125 -0.00781250000 0.04443359375 -0.04833984375 -0.09277343750 -0.01318359375 0.08642578125 -0.05322265625 -0.01464843750 -0.10400390625 -0.09228515625 0.07714843750 -0.08886718750 0.00683593750 0.06738281250 0.07373046875 -0.16064453125 -0.06347656250 0.17773437500 0.06152343750 -0.07958984375 0.04296875000 -0.08886718750 0.00634765625 -0.03759765625 -0.01513671875 -0.04003906250 -0.06494140625 0.10693359375 -0.12255859375 0.04833984375 -0.03369140625 -0.20996093750 0.09033203125 0.06201171875 0.04443359375 -0.15917968750 -0.01025390625 0.12939453125 0.04394531250 -0.10644531250 -0.09863281250 -0.00976562500 0.08056640625 0.07519531250 -0.09912109375 -0.01660156250 0.01464843750 0.04736328125 -0.01806640625 -0.07568359375 -0.05908203125 -0.01318359375 0.03710937500 -0.02587890625 -0.09423828125 0.00537109375 0.13720703125 0.06201171875 0.02783203125 -0.01757812500 0.01708984375 -0.02636718750 -0.03173828125 0.07666015625 0.03662109375 -0.00439453125 0.00000000000 -0.05419921875 0.05712890625 0.03369140625 -0.02929687500 0.06494140625 -0.02978515625 0.00244140625 0.03076171875 0.02441406250 -0.06689453125 -0.04394531250 -0.01904296875 -0.05468750000 -0.01074218750 0.08837890625 -0.04443359375 -0.02490234375 0.04541015625 0.00292968750 -0.05517578125 -0.04150390625 -0.04736328125 -0.06445312500 0.07861328125 0.06884765625 -0.05419921875 -0.03613281250 0.00244140625 -0.07470703125 -0.01416015625 -0.00585937500 0.10791015625 -0.13378906250 0.00341796875 0.06201171875 -0.01611328125 -0.19921875000 0.03417968750 -0.10156250000 -0.00244140625 0.07373046875 -0.00585937500 -0.22070312500 0.02441406250 -0.00781250000 -0.05712890625 -0.05371093750 0.07373046875 0.11572265625 0.12988281250 -0.04296875000 -0.01855468750 0.02050781250 0.06103515625 0.00292968750 -0.01025390625 -0.12011718750 -0.03759765625 0.24414062500 -0.01025390625 -0.09326171875 -0.04785156250 0.04248046875 0.08251953125 0.05224609375 -0.04394531250 -0.15136718750 -0.00097656250 0.04248046875 0.01220703125 -0.08544921875 -0.13623046875 -0.05566406250 0.05273437500 -0.03857421875 -0.10058593750 -0.10009765625 0.11474609375 -0.31103515625 0.03662109375 0.27978515625 -0.01220703125 -0.05859375000 0.04589843750 -0.00781250000 -0.01269531250 0.09570312500 -0.07714843750 -0.12500000000 -0.06054687500 -0.01513671875 -0.18017578125 0.03808593750 -0.05859375000 -0.15771484375 0.00488281250 0.05566406250 0.07275390625 -0.13378906250 -0.00683593750 0.07080078125 -0.02294921875 0.05761718750 -0.14404296875 -0.04736328125 0.07861328125 0.09472656250 -0.03076171875 -0.15283203125 -0.08496093750 0.12060546875 -0.07031250000 0.05175781250 -0.08251953125 -0.02978515625 0.07373046875 -0.01123046875 -0.04736328125 0.07666015625 -0.03173828125 0.08789062500 -0.16455078125 -0.01171875000 0.00341796875 -0.11035156250 -0.00048828125 0.00048828125 0.03906250000 0.02099609375 -0.04785156250 0.04248046875 0.14404296875 0.03808593750 0.02148437500 -0.03027343750 -0.09082031250 -0.11230468750 -0.02539062500 -0.05322265625 -0.11083984375 0.03369140625 0.08496093750 -0.07666015625 0.02685546875 0.16894531250 -0.05224609375 -0.04492187500 -0.09667968750 -0.02978515625 -0.06738281250 -0.14648437500 0.03125000000 -0.07324218750 -0.01904296875 0.03759765625 0.05566406250 -0.04736328125 -0.04394531250 -0.01757812500 -0.08203125000 -0.05371093750 0.07470703125 -0.03271484375 -0.10595703125 -0.01660156250 0.10107421875 -0.13964843750 0.04638671875 0.15087890625 -0.15722656250 -0.13720703125 0.00439453125 -0.17431640625 -0.14794921875 -0.01318359375 0.10156250000 0.00146484375 0.00000000000 -0.07812500000 0.03662109375 -0.02001953125 0.03417968750 0.04296875000 -0.03222656250 0.08642578125 0.12060546875 -0.11816406250 -0.08300781250 0.02636718750 -0.19433593750 -0.17285156250 0.04296875000 -0.06445312500 -0.00292968750 0.00927734375 0.12060546875 -0.03027343750 -0.12402343750 -0.06591796875 0.07421875000 -0.17285156250 -0.01562500000 -0.04882812500 0.19042968750 0.02050781250 -0.18164062500 -0.02539062500 0.00830078125 -0.07910156250 -0.03027343750 0.07666015625 -0.15625000000 -0.10058593750 0.08251953125 -0.27246093750 -0.08300781250 0.06152343750 0.11865234375 -0.17822265625 -0.04736328125 0.02685546875 -0.08349609375 0.03808593750 0.01757812500 -0.16455078125 0.06982421875 0.16015625000 -0.01806640625 -0.18798828125 -0.08105468750 0.00976562500 -0.09814453125 0.06640625000 -0.04589843750 -0.14990234375 -0.03955078125 0.17675781250 0.02685546875 -0.14160156250 -0.09179687500 0.00488281250 -0.20556640625 -0.11083984375 0.05761718750 -0.18945312500 -0.08789062500 -0.21728515625 0.05859375000 -0.12207031250 0.23876953125 -0.10205078125 0.04150390625 -0.14013671875 0.07031250000 -0.13037109375 -0.07128906250 -0.27832031250 -0.00488281250 -0.09912109375 -0.03857421875 -0.13818359375 -0.26025390625 -0.07226562500 0.07763671875 0.28759765625 -0.21728515625 -0.34667968750 0.16503906250 -0.14453125000 0.06396484375 -0.20556640625 -0.21533203125 0.12646484375 -0.01464843750 0.10302734375 0.04589843750 -0.37792968750 0.05859375000 -0.15576171875 0.12304687500 -0.18164062500 -0.01660156250 0.00146484375 0.18701171875 0.12500000000 0.06787109375 -0.31689453125 -0.12011718750 -0.18164062500 0.04882812500 -0.19775390625 -0.07226562500 0.02880859375 -0.05175781250 0.10937500000 -0.53662109375 -0.11230468750 0.16113281250 -0.25390625000 0.55419921875 -0.23828125000 -0.08886718750 -0.07568359375 0.01464843750 -0.07763671875 -0.34912109375 -0.08300781250 0.24560546875 -0.02490234375 0.43505859375 -0.24121093750 -0.09375000000 -0.16943359375 -0.30761718750 0.06542968750 0.14355468750 -0.14648437500 0.27099609375 0.07519531250 -0.34130859375 -0.20849609375 0.04443359375 0.00634765625 0.06054687500 -0.08251953125 0.07861328125 -0.21386718750 -0.01318359375 -0.01416015625 -0.21044921875 -0.18798828125 0.00781250000 0.11474609375 0.09228515625 -0.06396484375 0.06835937500 -0.04638671875 -0.12695312500 0.07324218750 -0.23388671875 -0.07031250000 0.06982421875 0.22412109375 -0.01904296875 -0.02832031250 -0.06201171875 0.03125000000 -0.02587890625 0.04785156250 -0.21093750000 0.07958984375 -0.01416015625 0.04589843750 0.06542968750 0.02734375000 -0.10058593750 -0.02001953125 0.00634765625 -0.03466796875 -0.06591796875 0.19726562500 0.09375000000 0.00097656250 -0.16357421875 -0.03662109375 -0.52001953125 -0.03955078125 -0.03027343750 -0.07373046875 -0.00976562500 0.15380859375 -0.25488281250 -0.15087890625 -0.01416015625 0.07373046875 0.00195312500 -0.18457031250 -0.08496093750 -0.22021484375 0.40136718750 -0.21240234375 -0.01367187500 -0.04687500000 -0.14404296875 -0.30468750000 -0.07031250000 -0.26757812500 -0.00390625000 -0.21435546875 0.19335937500 -0.29248046875 -0.04443359375 -0.18945312500 0.05761718750 0.01318359375 -0.21191406250 -0.45605468750 0.10351562500 -0.22851562500 0.14648437500 -0.17724609375 -0.19970703125 0.04541015625 -0.05517578125 -0.19628906250 0.02294921875 -0.34130859375 0.20019531250 -0.33349609375 0.23046875000 -0.14013671875 -0.20556640625 -0.01757812500 -0.39501953125 -0.08203125000 0.11279296875 -0.25537109375 0.27978515625 -0.38476562500 0.25195312500 -0.18994140625 -0.09326171875 -0.09130859375 -0.19042968750 0.08203125000 -0.15429687500 -0.35839843750 0.12792968750 -0.34472656250 0.42138671875 -0.18505859375 -0.04394531250 0.00927734375 -0.44433593750 -0.04199218750 0.30761718750 -0.15869140625 0.10498046875 -0.01269531250 0.03955078125 -0.10742187500 -0.14697265625 -0.06884765625 -0.02929687500 -0.14257812500 0.42773437500 -0.20117187500 -0.12988281250 -0.02294921875 0.02392578125 -0.10498046875 -0.03417968750 0.07568359375 -0.14453125000 0.00732421875 0.15722656250 -0.08447265625 -0.03369140625 -0.00097656250 -0.12792968750 0.00244140625 -0.01855468750 0.05126953125 -0.05468750000 -0.00341796875 0.08740234375 -0.04443359375 -0.01269531250 0.10644531250 -0.08544921875 0.01806640625 -0.08007812500 0.13330078125 0.02050781250 0.03564453125 0.03759765625 -0.03808593750 0.02099609375 0.05810546875 -0.13330078125 0.13671875000 0.09033203125 0.16992187500 -0.06640625000 -0.05761718750 -0.00585937500 0.13818359375 -0.01220703125 0.04541015625 -0.10449218750 -0.01953125000 0.09082031250 -0.05126953125 0.00048828125 -0.07714843750 -0.06689453125 -0.01367187500 -0.13037109375 0.00732421875 -0.08935546875 0.12597656250 0.08203125000 -0.12890625000 -0.47167968750 0.04394531250 -0.07324218750 -0.26269531250 -0.19531250000 -0.40185546875 0.30029296875 -0.46630859375 -0.18359375000 -0.14599609375 -0.04541015625 -0.39404296875 0.06738281250 -0.18554687500 0.11279296875 -0.39892578125 0.24218750000 -0.39355468750 -0.07031250000 0.10253906250 -0.13037109375 0.08105468750 0.03466796875 -0.26757812500 0.14794921875 -0.48193359375 0.13378906250 -0.13232421875 0.18164062500 0.14990234375 0.10058593750 -0.35644531250 -0.10205078125 -0.40478515625 -0.05126953125 -0.41064453125 0.25634765625 -0.06396484375 0.01562500000 -0.05224609375 -0.07958984375 0.11474609375 -0.38037109375 -0.39306640625 0.08740234375 -0.36279296875 0.42187500000 -0.10449218750 -0.06933593750 -0.26367187500 -0.12597656250 0.19433593750 -0.07324218750 -0.12548828125 0.09912109375 -0.18994140625 0.25634765625 -0.41357421875 -0.08789062500 -0.12158203125 -0.11376953125 -0.02832031250 0.18066406250 -0.08593750000 0.10449218750 -0.23974609375 0.07324218750 -0.01464843750 -0.20849609375 0.12255859375 -0.14111328125 -0.19189453125 0.19873046875 -0.08544921875 0.14990234375 -0.10498046875 0.02685546875 0.07910156250 -0.03808593750 0.11035156250 0.08837890625 0.12011718750 0.00097656250 0.04394531250 -0.20117187500 -0.00830078125 -0.18994140625 -0.04687500000 -0.07861328125 0.03808593750 -0.07226562500 0.03417968750 0.00927734375 -0.08837890625 0.04638671875 0.22412109375 -0.23242187500 -0.09375000000 0.07031250000 0.11181640625 0.00048828125 0.05078125000 0.00097656250 -0.05712890625 -0.08300781250 0.05957031250 -0.06738281250 0.09814453125 0.01367187500 0.11083984375 0.03955078125 0.01611328125 0.00390625000 -0.08935546875 0.00146484375 0.09863281250 -0.07812500000 0.09472656250 -0.02050781250 -0.07373046875 0.00000000000 0.02734375000 0.05224609375 0.08984375000 -0.06542968750 -0.01513671875 -0.03515625000 0.12060546875 0.13085937500 -0.41894531250 -0.08691406250 0.14550781250 -0.48681640625 -0.41894531250 -0.21972656250 -0.41748046875 0.31396484375 -0.49316406250 -0.03759765625 -0.11132812500 -0.02832031250 -0.12451171875 -0.14062500000 -0.27832031250 -0.01708984375 -0.09667968750 0.24511718750 -0.36572265625 -0.08007812500 0.18896484375 -0.14404296875 0.28125000000 0.17382812500 -0.30126953125 -0.08105468750 -0.15332031250 -0.08984375000 -0.16503906250 0.19042968750 -0.10302734375 -0.02587890625 -0.37939453125 -0.07910156250 -0.29833984375 0.17089843750 -0.35449218750 0.05615234375 0.04296875000 -0.10058593750 -0.20214843750 0.06933593750 0.25048828125 -0.40087890625 -0.38085937500 0.22900390625 -0.19042968750 0.27197265625 -0.19189453125 -0.04443359375 -0.10351562500 0.17480468750 0.07031250000 -0.20507812500 -0.19189453125 -0.00488281250 -0.11865234375 0.20605468750 -0.15234375000 -0.08740234375 -0.06982421875 0.00878906250 0.03027343750 -0.03759765625 0.11376953125 -0.05566406250 -0.20214843750 0.16064453125 0.08398437500 -0.12255859375 0.08203125000 0.04687500000 -0.01220703125 -0.04736328125 0.06250000000 0.02148437500 0.00976562500 -0.06591796875 0.00781250000 -0.05078125000 0.07958984375 -0.04492187500 0.11035156250 -0.13183593750 -0.14013671875 0.02734375000 0.01611328125 -0.02783203125 0.07763671875 0.11083984375 0.06201171875 -0.07617187500 -0.03222656250 -0.05615234375 -0.18408203125 -0.02001953125 0.25781250000 -0.08642578125 -0.05664062500 0.04589843750 -0.03710937500 0.01123046875 -0.01367187500 -0.06201171875 -0.14941406250 0.05273437500 0.13378906250 -0.07177734375 -0.01171875000 -0.07812500000 0.11279296875 -0.02490234375 0.00341796875 -0.00048828125 -0.13574218750 0.08007812500 0.14599609375 -0.03466796875 -0.04199218750 0.08593750000 0.00000000000 -0.07861328125 -0.27783203125 0.00781250000 -0.10791015625 -0.08447265625 0.14599609375 -0.03369140625 0.08789062500 -0.15087890625 -0.09375000000 -0.20605468750 -0.17333984375 -0.24902343750 -0.37939453125 -0.18750000000 -0.10986328125 0.44140625000 -0.35791015625 -0.22070312500 -0.07177734375 0.08496093750 0.11376953125 -0.15234375000 -0.46289062500 -0.00048828125 0.11865234375 0.14111328125 -0.39550781250 -0.20263671875 0.10253906250 -0.15039062500 0.20898437500 0.15722656250 -0.18701171875 0.12011718750 -0.04248046875 -0.01074218750 -0.19726562500 0.02880859375 -0.13378906250 0.02197265625 -0.10888671875 -0.07373046875 -0.34375000000 0.14501953125 -0.27001953125 0.08593750000 -0.02246093750 -0.14306640625 -0.13574218750 0.06054687500 -0.03125000000 0.19238281250 -0.09228515625 -0.02587890625 -0.37939453125 0.07080078125 -0.12500000000 -0.09179687500 -0.31494140625 0.19726562500 0.00292968750 -0.11865234375 0.09912109375 -0.06005859375 -0.24853515625 0.28906250000 -0.03564453125 -0.12158203125 -0.11718750000 0.05029296875 -0.06835937500 -0.02392578125 0.01513671875 0.11181640625 -0.13134765625 0.06103515625 0.24902343750 -0.21386718750 0.03320312500 0.00048828125 0.01953125000 0.15771484375 0.10058593750 -0.04443359375 -0.06005859375 -0.14160156250 0.22216796875 0.00732421875 -0.04296875000 0.08984375000 0.04931640625 -0.09033203125 -0.01123046875 -0.05126953125 0.08251953125 -0.16748046875 -0.03320312500 0.00634765625 0.04980468750 -0.00439453125 -0.12548828125 0.04150390625 -0.12353515625 0.06298828125 0.18457031250 -0.09130859375 -0.09521484375 0.01464843750 0.10449218750 -0.02050781250 -0.03515625000 0.00146484375 0.03320312500 0.03857421875 0.05908203125 -0.01562500000 -0.04199218750 -0.01953125000 0.01464843750 0.03515625000 -0.04541015625 -0.01464843750 -0.17333984375 0.06591796875 0.24072265625 -0.08837890625 -0.10644531250 0.03662109375 -0.16845703125 -0.03906250000 -0.00878906250 -0.08789062500 -0.04345703125 -0.06542968750 0.06396484375 -0.14208984375 0.12939453125 -0.09863281250 -0.10302734375 -0.30468750000 -0.19091796875 -0.49414062500 -0.06396484375 -0.22900390625 -0.29443359375 0.52880859375 -0.33203125000 -0.24462890625 0.06982421875 -0.02294921875 -0.01318359375 -0.10644531250 0.02587890625 0.05322265625 -0.05517578125 0.18359375000 -0.18896484375 -0.02099609375 -0.00244140625 -0.19531250000 0.00537109375 0.31103515625 0.06005859375 -0.04882812500 -0.01855468750 -0.01269531250 -0.24316406250 -0.01513671875 -0.07763671875 0.17333984375 -0.10546875000 -0.03369140625 0.01953125000 -0.01269531250 -0.12890625000 -0.10693359375 -0.10058593750 0.00830078125 -0.14355468750 0.03369140625 0.00390625000 0.10693359375 0.16748046875 -0.12841796875 -0.37500000000 0.02001953125 -0.02734375000 0.11035156250 -0.33447265625 0.08740234375 -0.05566406250 0.04150390625 0.14111328125 -0.17138671875 -0.14648437500 0.11767578125 0.09228515625 -0.00195312500 -0.07568359375 -0.03515625000 -0.13037109375 0.06396484375 0.04345703125 0.00585937500 -0.13916015625 0.04785156250 0.10693359375 -0.11279296875 -0.14990234375 -0.05615234375 0.06103515625 -0.05957031250 -0.00195312500 -0.00634765625 -0.14648437500 -0.02685546875 0.25341796875 -0.00878906250 0.07568359375 0.12207031250 -0.00146484375 -0.12207031250 0.01562500000 0.00830078125 0.06298828125 -0.19433593750 -0.04882812500 -0.02148437500 0.03955078125 -0.13085937500 -0.01904296875 -0.06201171875 -0.03808593750 0.08251953125 0.10888671875 -0.04101562500 -0.06103515625 -0.06787109375 0.07519531250 -0.03173828125 -0.07324218750 -0.01904296875 -0.03369140625 -0.00292968750 0.12841796875 0.10253906250 -0.02734375000 -0.02148437500 -0.08154296875 0.02539062500 -0.03369140625 -0.00634765625 -0.11816406250 0.02832031250 0.03076171875 0.00976562500 0.07519531250 -0.06347656250 -0.02343750000 -0.04003906250 -0.07958984375 -0.00341796875 -0.06445312500 -0.02246093750 0.04101562500 -0.01464843750 0.10058593750 -0.05078125000 -0.21435546875 -0.28515625000 -0.16894531250 -0.48925781250 0.15234375000 -0.16357421875 -0.09375000000 0.23535156250 -0.01708984375 -0.30078125000 -0.30468750000 0.07958984375 -0.01464843750 -0.08789062500 0.12646484375 -0.06494140625 -0.24365234375 0.20703125000 0.14648437500 0.09375000000 0.14355468750 0.07470703125 -0.05761718750 0.06054687500 0.41406250000 -0.26416015625 -0.52539062500 0.02490234375 0.07666015625 0.09716796875 -0.08300781250 0.05078125000 -0.22949218750 0.18115234375 -0.01074218750 -0.07324218750 -0.11474609375 -0.02587890625 -0.31738281250 0.09570312500 -0.04394531250 0.21484375000 0.07470703125 -0.03320312500 0.06396484375 -0.20996093750 -0.22412109375 -0.05322265625 -0.01123046875 0.11425781250 -0.16699218750 -0.00341796875 0.02832031250 -0.03320312500 0.01513671875 -0.16796875000 -0.11621093750 0.13867187500 0.22265625000 -0.13085937500 0.00732421875 0.06640625000 -0.01123046875 -0.00878906250 0.10742187500 -0.08740234375 -0.15966796875 0.06542968750 -0.03173828125 0.05175781250 0.06005859375 -0.21289062500 0.00634765625 0.05566406250 -0.14013671875 0.01220703125 0.15673828125 -0.05517578125 -0.02441406250 0.05126953125 0.10107421875 0.01220703125 -0.01025390625 -0.17968750000 0.07421875000 0.02099609375 -0.23486328125 -0.08349609375 0.00341796875 0.06542968750 0.01318359375 -0.11572265625 -0.00732421875 -0.13134765625 0.12109375000 0.07470703125 -0.11865234375 -0.05517578125 -0.03955078125 -0.06250000000 -0.00488281250 0.05175781250 -0.06884765625 0.03173828125 0.06640625000 0.00146484375 -0.03710937500 -0.03662109375 -0.03808593750 -0.04248046875 -0.07373046875 0.01318359375 -0.03417968750 0.04589843750 0.07617187500 -0.00146484375 -0.15478515625 0.03613281250 0.17529296875 -0.13378906250 0.01171875000 -0.03222656250 -0.08593750000 0.01269531250 0.03125000000 -0.03271484375 0.03271484375 -0.01220703125 0.08642578125 -0.18945312500 -0.08203125000 -0.18359375000 -0.12695312500 -0.49609375000 0.12402343750 -0.23095703125 0.14404296875 0.22070312500 -0.23291015625 -0.00244140625 0.01660156250 0.03906250000 0.05419921875 -0.02929687500 -0.04687500000 -0.24414062500 -0.20263671875 0.14062500000 0.21044921875 -0.01464843750 0.04541015625 0.02148437500 0.19531250000 -0.03076171875 0.10253906250 -0.00683593750 -0.29541015625 0.00537109375 -0.06689453125 0.14306640625 -0.06982421875 -0.06054687500 -0.16113281250 0.14208984375 0.11035156250 0.02441406250 -0.11132812500 -0.17089843750 -0.43164062500 0.00683593750 -0.06738281250 0.13818359375 0.03955078125 0.19238281250 0.20996093750 -0.22021484375 -0.29345703125 0.00927734375 -0.04248046875 -0.02246093750 0.04589843750 -0.04541015625 0.01904296875 -0.08154296875 -0.10546875000 -0.00683593750 0.02587890625 0.05224609375 -0.00244140625 -0.06152343750 -0.05371093750 -0.14599609375 0.01171875000 0.04150390625 0.09814453125 0.03417968750 -0.12060546875 0.02880859375 -0.18798828125 0.13867187500 0.00830078125 -0.14013671875 -0.03320312500 0.16259765625 -0.02441406250 -0.05908203125 0.00146484375 -0.10595703125 -0.11621093750 0.11962890625 0.03076171875 -0.04101562500 0.01171875000 -0.03808593750 -0.01660156250 -0.02978515625 0.04443359375 -0.13232421875 -0.18115234375 0.04052734375 0.03320312500 -0.12988281250 -0.05908203125 -0.05273437500 -0.08203125000 0.15185546875 -0.03369140625 0.08203125000 -0.10449218750 -0.00195312500 -0.03369140625 0.01855468750 -0.03613281250 0.06005859375 0.10888671875 -0.04296875000 -0.09326171875 0.01416015625 -0.05273437500 -0.00439453125 0.05371093750 0.01367187500 -0.05175781250 0.04687500000 0.28710937500 -0.03173828125 -0.27832031250 -0.05078125000 0.08935546875 -0.06787109375 0.02587890625 -0.04589843750 -0.09277343750 -0.05761718750 -0.08398437500 0.02490234375 0.05859375000 -0.00195312500 0.08984375000 -0.20800781250 0.00488281250 -0.14355468750 -0.14794921875 -0.38623046875 0.25732421875 -0.18994140625 -0.07128906250 0.40917968750 -0.25732421875 -0.03027343750 -0.00488281250 0.03564453125 0.06396484375 -0.09521484375 -0.03515625000 -0.08203125000 -0.26074218750 0.09228515625 0.14941406250 0.07861328125 -0.16162109375 0.06494140625 0.12451171875 -0.02099609375 0.10302734375 -0.12011718750 -0.21386718750 -0.04296875000 -0.03759765625 0.02783203125 -0.09814453125 -0.08251953125 0.09960937500 -0.03173828125 0.12744140625 0.11279296875 -0.07470703125 -0.04296875000 -0.48681640625 0.07275390625 -0.00146484375 -0.09716796875 -0.08154296875 0.27148437500 0.07080078125 -0.15527343750 -0.20947265625 -0.12060546875 -0.09277343750 0.04248046875 0.16796875000 -0.03613281250 -0.03710937500 -0.12500000000 0.01562500000 -0.08837890625 -0.09228515625 0.06591796875 -0.20068359375 -0.04736328125 -0.02929687500 0.01513671875 -0.02783203125 0.16601562500 -0.08398437500 -0.03027343750 0.09814453125 -0.06591796875 -0.30273437500 -0.09179687500 0.02978515625 -0.16015625000 0.03320312500 0.06933593750 0.04882812500 0.03076171875 0.04980468750 0.05908203125 -0.18505859375 0.18994140625 -0.00878906250 0.07080078125 -0.12597656250 0.03125000000 0.01318359375 -0.17333984375 -0.00683593750 -0.02880859375 -0.11035156250 0.05322265625 0.03076171875 -0.05761718750 -0.06982421875 -0.00146484375 0.03955078125 0.02832031250 -0.08349609375 0.12451171875 -0.07861328125 0.07226562500 -0.11230468750 -0.05224609375 0.05078125000 -0.10156250000 -0.10058593750 0.01806640625 -0.13720703125 0.16894531250 0.06787109375 0.00488281250 0.02197265625 0.03759765625 -0.04492187500 0.01269531250 0.03027343750 -0.09472656250 -0.06152343750 0.07470703125 0.06982421875 -0.13671875000 0.00195312500 -0.05322265625 0.03271484375 -0.00048828125 -0.01708984375 0.00000000000 0.08544921875 0.17089843750 -0.04248046875 -0.19531250000 -0.05761718750 -0.02294921875 -0.18017578125 -0.15087890625 -0.13134765625 -0.20898437500 -0.03613281250 0.39599609375 -0.06640625000 -0.31884765625 -0.00146484375 0.18945312500 0.20507812500 0.01171875000 -0.22509765625 -0.30957031250 -0.20996093750 0.15966796875 0.17236328125 0.00097656250 0.02001953125 0.05761718750 -0.12353515625 0.09033203125 -0.16259765625 0.00439453125 -0.16650390625 -0.15917968750 -0.02294921875 0.02001953125 0.04541015625 -0.07519531250 0.10937500000 -0.04296875000 0.13085937500 0.18652343750 -0.28369140625 0.00390625000 -0.22851562500 -0.01171875000 0.13574218750 -0.03515625000 0.12060546875 -0.00244140625 0.00781250000 -0.06005859375 0.10009765625 -0.10302734375 -0.30371093750 0.02441406250 0.15429687500 -0.07177734375 0.00878906250 -0.14453125000 -0.07324218750 -0.05371093750 -0.04394531250 -0.00585937500 -0.12597656250 0.14257812500 0.06933593750 -0.07373046875 -0.01318359375 0.02392578125 0.04101562500 -0.10449218750 -0.07324218750 -0.06542968750 -0.20654296875 0.10693359375 -0.08447265625 0.00830078125 0.00488281250 0.07519531250 0.04931640625 -0.05126953125 -0.13037109375 0.02099609375 -0.13867187500 -0.09521484375 -0.00878906250 0.13720703125 0.01318359375 -0.06542968750 0.12109375000 -0.05078125000 -0.00048828125 -0.10205078125 -0.12939453125 0.04199218750 -0.02978515625 0.04003906250 -0.02832031250 -0.04150390625 -0.01513671875 -0.01220703125 -0.17382812500 0.09716796875 0.03369140625 0.00537109375 -0.03466796875 0.08593750000 -0.04052734375 -0.18701171875 -0.10107421875 0.08300781250 -0.08984375000 0.15478515625 0.09033203125 -0.07910156250 0.09130859375 0.03320312500 0.00244140625 0.03564453125 -0.00537109375 -0.09228515625 -0.11962890625 0.20263671875 0.07666015625 -0.01464843750 -0.01171875000 -0.08056640625 0.04443359375 0.03955078125 0.16650390625 -0.01708984375 -0.22314453125 0.14501953125 0.10351562500 -0.02929687500 -0.09277343750 -0.33642578125 -0.13085937500 -0.06494140625 -0.10205078125 -0.00341796875 -0.04833984375 0.21875000000 -0.04980468750 -0.14599609375 0.02783203125 0.07373046875 0.00048828125 -0.04736328125 -0.38916015625 0.08544921875 0.06250000000 -0.13232421875 0.09179687500 0.04931640625 0.01660156250 0.06054687500 -0.15820312500 -0.09423828125 -0.48925781250 0.04589843750 -0.00683593750 -0.13867187500 0.29785156250 0.01464843750 -0.02148437500 0.06982421875 0.11718750000 -0.08544921875 -0.13574218750 0.03027343750 0.03027343750 -0.03515625000 -0.14941406250 0.01806640625 0.33984375000 -0.09667968750 -0.04492187500 0.04736328125 0.10400390625 -0.01562500000 -0.01855468750 -0.07714843750 -0.31152343750 0.04394531250 0.22167968750 -0.21679687500 0.00439453125 -0.00976562500 -0.12158203125 -0.06396484375 0.08007812500 -0.05468750000 -0.23095703125 -0.04003906250 0.06689453125 -0.06152343750 0.07910156250 -0.17236328125 0.06005859375 0.00195312500 -0.13720703125 -0.23095703125 -0.12255859375 -0.02148437500 -0.11914062500 0.10156250000 0.03564453125 -0.04345703125 0.17041015625 0.03662109375 -0.01806640625 -0.11865234375 -0.10205078125 -0.05078125000 -0.03222656250 0.07763671875 -0.05859375000 -0.03271484375 0.15380859375 0.02246093750 -0.04394531250 -0.01660156250 -0.00390625000 0.13818359375 -0.02099609375 0.13281250000 0.01904296875 -0.03027343750 -0.18261718750 -0.12548828125 -0.18115234375 -0.00390625000 0.08593750000 0.03613281250 -0.01660156250 0.10302734375 -0.08544921875 -0.09570312500 0.04785156250 0.02685546875 -0.12695312500 0.11328125000 -0.17675781250 -0.15917968750 0.01025390625 -0.02197265625 0.01269531250 0.02929687500 -0.06689453125 -0.01171875000 -0.15771484375 0.20117187500 0.00439453125 -0.00292968750 -0.04882812500 -0.06933593750 -0.05029296875 0.03271484375 0.13671875000 -0.03369140625 -0.15039062500 0.14160156250 0.06494140625 -0.06640625000 -0.06250000000 -0.21777343750 -0.26367187500 -0.10595703125 0.12109375000 0.04199218750 0.02929687500 0.05273437500 -0.20605468750 -0.01708984375 -0.07910156250 0.10644531250 -0.00195312500 -0.26806640625 -0.39794921875 0.13330078125 -0.01904296875 -0.12451171875 0.15185546875 -0.08300781250 -0.12402343750 0.11328125000 -0.06640625000 -0.09033203125 -0.42138671875 0.08691406250 -0.03564453125 -0.02343750000 0.13134765625 -0.02490234375 0.07275390625 0.09521484375 -0.33789062500 -0.01708984375 -0.26025390625 0.07324218750 0.01708984375 -0.09472656250 -0.14160156250 -0.11035156250 0.13818359375 -0.01757812500 0.01464843750 -0.10888671875 0.01806640625 0.08398437500 0.02587890625 -0.04785156250 -0.20312500000 -0.02441406250 0.18603515625 -0.17480468750 0.01806640625 -0.00439453125 -0.06591796875 -0.11425781250 -0.21972656250 -0.07958984375 0.05908203125 0.06250000000 0.21337890625 -0.17041015625 -0.01464843750 -0.07128906250 0.14843750000 -0.05615234375 -0.19482421875 -0.07861328125 -0.15087890625 -0.08154296875 -0.06298828125 0.20605468750 -0.06542968750 -0.04736328125 0.23974609375 -0.03662109375 -0.12792968750 -0.05029296875 0.03515625000 -0.02685546875 -0.02783203125 0.11816406250 -0.00146484375 -0.01660156250 0.01611328125 -0.01464843750 -0.28515625000 -0.14453125000 0.08398437500 0.05957031250 0.03173828125 0.05371093750 0.03271484375 0.03271484375 -0.00341796875 -0.12304687500 -0.26904296875 0.10498046875 -0.05078125000 0.09326171875 -0.12597656250 0.10107421875 -0.12695312500 -0.04003906250 -0.08447265625 -0.06347656250 -0.18994140625 0.12890625000 -0.10644531250 -0.02539062500 -0.02539062500 0.03173828125 0.11767578125 -0.10742187500 -0.13623046875 -0.01562500000 -0.31054687500 0.16943359375 0.09619140625 -0.07226562500 -0.01025390625 -0.00390625000 -0.03320312500 0.06152343750 0.07861328125 -0.09619140625 -0.01904296875 0.11767578125 -0.01708984375 -0.26660156250 -0.18750000000 -0.10253906250 0.00097656250 -0.12451171875 -0.06152343750 0.08105468750 -0.12744140625 0.03076171875 -0.00146484375 -0.05908203125 0.10351562500 0.18261718750 -0.15136718750 0.16796875000 -0.06689453125 -0.20898437500 0.02148437500 -0.40576171875 -0.15771484375 -0.28759765625 -0.11669921875 0.10449218750 -0.08593750000 0.00537109375 -0.31835937500 -0.00488281250 0.01757812500 -0.42871093750 0.00195312500 -0.16894531250 0.07812500000 -0.00048828125 -0.24755859375 0.20019531250 -0.36279296875 -0.07519531250 -0.20263671875 -0.11132812500 0.02246093750 0.07373046875 0.14990234375 0.14013671875 0.01806640625 -0.33300781250 -0.10449218750 -0.04638671875 -0.18750000000 -0.01660156250 0.01611328125 0.06982421875 0.26074218750 -0.24267578125 0.14355468750 -0.18408203125 0.04980468750 -0.26464843750 -0.52001953125 0.02636718750 0.06689453125 0.08837890625 0.32177734375 -0.22509765625 -0.10107421875 -0.04882812500 0.16796875000 -0.27441406250 -0.32080078125 -0.07714843750 -0.08105468750 0.10156250000 0.11572265625 -0.05957031250 0.02294921875 -0.12255859375 0.12304687500 -0.06054687500 -0.19628906250 -0.14892578125 0.15429687500 0.14892578125 -0.07861328125 -0.11669921875 0.10107421875 -0.08789062500 -0.14111328125 -0.05810546875 -0.33935546875 0.05322265625 -0.07177734375 -0.03027343750 -0.07568359375 -0.04003906250 -0.01171875000 -0.21923828125 -0.06640625000 0.19433593750 -0.08251953125 0.23925781250 -0.37500000000 0.08398437500 -0.09863281250 0.10791015625 -0.08789062500 -0.09619140625 -0.07958984375 0.00146484375 -0.17529296875 0.07958984375 -0.04980468750 -0.04931640625 -0.03515625000 0.14746093750 0.01660156250 -0.02148437500 -0.02978515625 -0.20166015625 -0.23828125000 0.20019531250 0.02050781250 -0.02783203125 0.05126953125 -0.07031250000 0.00585937500 0.10400390625 0.08105468750 -0.01025390625 -0.09423828125 0.01318359375 -0.01171875000 0.02685546875 0.01757812500 -0.08056640625 -0.21435546875 -0.18847656250 -0.29833984375 0.08886718750 -0.24755859375 -0.02539062500 -0.26562500000 0.10986328125 -0.23144531250 0.14355468750 -0.09130859375 -0.10156250000 -0.44042968750 0.01562500000 -0.14599609375 -0.33984375000 -0.18066406250 0.00488281250 -0.42480468750 0.00439453125 -0.02685546875 0.00585937500 -0.44287109375 0.08154296875 -0.12695312500 -0.07714843750 -0.27343750000 0.17675781250 -0.44433593750 -0.13134765625 -0.06396484375 0.02783203125 -0.17529296875 0.07812500000 -0.20361328125 -0.02636718750 -0.14208984375 0.06884765625 -0.35009765625 -0.09082031250 -0.02246093750 -0.19726562500 -0.15332031250 0.29101562500 -0.06982421875 -0.07470703125 -0.01464843750 0.16992187500 -0.15429687500 0.15869140625 -0.02685546875 -0.17626953125 0.01025390625 0.03808593750 -0.06298828125 -0.22900390625 -0.18652343750 -0.01416015625 -0.16455078125 0.01806640625 0.02246093750 -0.28027343750 -0.07373046875 0.24365234375 0.11572265625 -0.10302734375 -0.12890625000 0.02392578125 -0.49755859375 -0.21044921875 -0.06250000000 -0.11914062500 -0.17480468750 0.33251953125 0.10986328125 0.29052734375 -0.15087890625 0.03613281250 -0.10498046875 -0.05810546875 -0.13720703125 0.16650390625 -0.06884765625 -0.06933593750 0.10546875000 0.09912109375 -0.06152343750 -0.07324218750 -0.09472656250 0.07421875000 0.14404296875 0.22021484375 -0.10791015625 -0.18847656250 0.02001953125 -0.25878906250 -0.12207031250 0.11425781250 0.03076171875 0.13134765625 -0.15478515625 -0.26269531250 0.05468750000 0.00146484375 -0.15234375000 -0.17529296875 -0.03906250000 -0.02734375000 -0.04248046875 -0.10449218750 0.14062500000 -0.27197265625 0.13232421875 -0.07177734375 -0.20312500000 0.07470703125 0.08203125000 0.10888671875 -0.39257812500 -0.44921875000 -0.09472656250 -0.23583984375 0.09277343750 -0.02832031250 -0.08300781250 0.02978515625 0.02734375000 0.02539062500 -0.09765625000 0.00048828125 -0.01025390625 -0.07617187500 -0.43310546875 -0.03417968750 -0.19873046875 0.07373046875 -0.39746093750 0.16064453125 -0.09228515625 0.03955078125 -0.10400390625 0.07421875000 -0.38720703125 -0.08544921875 -0.16162109375 -0.07666015625 -0.17333984375 0.02148437500 0.09912109375 0.10644531250 0.00000000000 0.13378906250 -0.26318359375 -0.18261718750 -0.16601562500 0.01464843750 -0.07421875000 -0.15527343750 -0.15722656250 0.23242187500 0.06054687500 0.12402343750 -0.14160156250 -0.18505859375 -0.32763671875 -0.06054687500 -0.13623046875 0.08642578125 -0.29980468750 0.16308593750 -0.02734375000 0.23193359375 0.01464843750 -0.08447265625 -0.42822265625 -0.24755859375 -0.08691406250 0.19433593750 0.12304687500 -0.10742187500 -0.17822265625 0.27587890625 -0.03369140625 -0.15039062500 -0.14648437500 -0.21435546875 -0.13623046875 0.06298828125 0.12060546875 -0.01123046875 -0.26708984375 0.30712890625 -0.05517578125 0.02539062500 0.11962890625 -0.36669921875 -0.10595703125 0.04150390625 -0.00976562500 -0.13671875000 -0.04199218750 0.10644531250 -0.07080078125 0.03271484375 0.13232421875 -0.04296875000 -0.07324218750 -0.15380859375 0.01513671875 0.10546875000 -0.01416015625 0.06347656250 -0.12011718750 -0.14599609375 0.12255859375 0.04150390625 -0.03808593750 -0.21142578125 0.06640625000 0.10400390625 0.08105468750 0.01513671875 0.08349609375 -0.08837890625 0.00390625000 0.15380859375 0.02294921875 -0.04736328125 0.08300781250 0.02001953125 0.00048828125 -0.00781250000 -0.02978515625 -0.04443359375 0.11132812500 0.01953125000 0.01171875000 -0.01513671875 -0.17578125000 0.20898437500 -0.21777343750 -0.01025390625 0.22558593750 -0.06640625000 -0.00976562500 -0.03662109375 -0.16894531250 0.10156250000 -0.08056640625 -0.36181640625 0.00244140625 -0.49121093750 -0.06445312500 0.01171875000 0.07324218750 -0.01855468750 0.06884765625 0.11474609375 -0.01660156250 -0.13330078125 0.01660156250 0.05810546875 -0.07812500000 -0.17724609375 -0.53613281250 0.17724609375 -0.65380859375 0.01464843750 0.05419921875 -0.06152343750 -0.07128906250 0.11962890625 -0.68750000000 0.02978515625 -0.36035156250 0.06982421875 -0.03369140625 0.19531250000 -0.03564453125 0.04833984375 -0.13330078125 0.23730468750 -0.45849609375 -0.23828125000 -0.49316406250 0.00781250000 -0.02978515625 0.02246093750 -0.12402343750 0.05273437500 0.13037109375 0.11279296875 -0.25634765625 -0.09472656250 -0.07617187500 -0.03173828125 -0.14453125000 0.05273437500 -0.14941406250 0.08593750000 0.11083984375 0.25292968750 -0.28955078125 -0.17529296875 -0.17871093750 -0.07812500000 0.00830078125 0.09082031250 0.03662109375 -0.10742187500 -0.05859375000 0.22753906250 -0.04199218750 -0.02685546875 -0.03710937500 -0.35205078125 -0.10888671875 -0.10595703125 0.29150390625 -0.17675781250 -0.18310546875 0.25146484375 0.03222656250 0.08593750000 0.01806640625 -0.26708984375 -0.05908203125 0.13378906250 0.11035156250 -0.10400390625 -0.07519531250 0.07763671875 0.13574218750 -0.14599609375 0.03564453125 -0.07861328125 -0.08251953125 0.16650390625 -0.12548828125 -0.21191406250 0.06933593750 0.27783203125 0.01953125000 -0.20556640625 0.24609375000 -0.07617187500 -0.16113281250 -0.03515625000 -0.06933593750 0.11376953125 0.00146484375 0.10107421875 0.11474609375 -0.14746093750 0.09423828125 -0.12109375000 -0.08544921875 -0.01171875000 -0.06347656250 0.03369140625 -0.08740234375 0.11718750000 -0.00097656250 -0.06494140625 0.19580078125 -0.04101562500 -0.09570312500 0.01367187500 -0.03906250000 -0.02636718750 -0.01660156250 0.05615234375 0.09277343750 -0.10644531250 -0.08544921875 0.08740234375 0.04833984375 0.06396484375 -0.31347656250 -0.25585937500 -0.14892578125 -0.21044921875 0.11279296875 0.05371093750 -0.14306640625 -0.06005859375 0.13769531250 0.19091796875 -0.11035156250 -0.33349609375 -0.06494140625 -0.09716796875 -0.16894531250 -0.04248046875 -0.11621093750 0.16650390625 -0.63037109375 -0.10449218750 -0.02685546875 -0.11816406250 0.01220703125 -0.00830078125 -0.11523437500 0.19873046875 -0.14111328125 0.08837890625 -0.13671875000 0.07958984375 -0.12744140625 -0.11962890625 -0.11083984375 0.06884765625 -0.04150390625 0.08398437500 -0.07861328125 -0.21875000000 -0.00244140625 0.23046875000 -0.17626953125 0.14404296875 -0.23437500000 -0.14599609375 -0.20312500000 0.01660156250 -0.13427734375 -0.15478515625 0.02490234375 0.05615234375 -0.06542968750 0.13183593750 -0.04150390625 0.04736328125 -0.10156250000 -0.08447265625 -0.12597656250 -0.06347656250 -0.05566406250 -0.00830078125 -0.11035156250 0.04492187500 -0.02978515625 0.18945312500 -0.04296875000 -0.02490234375 0.11572265625 -0.19433593750 -0.07519531250 0.00585937500 0.09912109375 -0.00341796875 -0.12158203125 0.02880859375 -0.00292968750 0.04296875000 0.13427734375 -0.38671875000 0.02294921875 0.09570312500 0.01562500000 0.08447265625 -0.11132812500 -0.01171875000 -0.05664062500 -0.07861328125 0.13085937500 -0.22753906250 -0.00634765625 0.04687500000 0.08349609375 0.09960937500 -0.07470703125 0.06201171875 0.02294921875 -0.25146484375 0.12548828125 -0.03564453125 -0.05468750000 0.05371093750 -0.10546875000 -0.04101562500 0.11865234375 0.07617187500 -0.06298828125 -0.11181640625 0.13085937500 -0.12841796875 -0.01562500000 -0.05273437500 -0.12890625000 -0.02783203125 0.03906250000 0.07031250000 0.05078125000 0.05908203125 0.07617187500 -0.05957031250 -0.05908203125 -0.03759765625 -0.10400390625 -0.02343750000 -0.13183593750 0.08544921875 0.04931640625 0.06884765625 0.16357421875 -0.06005859375 -0.08398437500 -0.02490234375 -0.15673828125 -0.23583984375 0.04052734375 -0.25927734375 0.16943359375 -0.02929687500 0.09960937500 0.13085937500 -0.10156250000 -0.01123046875 0.01904296875 -0.22363281250 -0.04394531250 -0.13671875000 -0.13232421875 0.06640625000 -0.00585937500 0.13037109375 -0.68115234375 -0.18798828125 -0.01367187500 0.02539062500 0.06542968750 -0.22509765625 -0.04394531250 0.13671875000 -0.08642578125 0.17187500000 -0.37939453125 -0.19628906250 -0.03417968750 0.13671875000 -0.08691406250 -0.10351562500 -0.07128906250 0.17089843750 -0.13916015625 0.08447265625 -0.04931640625 0.22949218750 -0.11376953125 -0.00976562500 -0.26367187500 0.02636718750 -0.08691406250 -0.03271484375 -0.00830078125 -0.02978515625 -0.03369140625 0.08544921875 -0.07373046875 0.14941406250 -0.15136718750 -0.08544921875 -0.24169921875 -0.03808593750 0.38427734375 0.01855468750 -0.19677734375 -0.03613281250 -0.08984375000 0.17382812500 -0.21679687500 -0.09375000000 -0.10986328125 0.05029296875 0.19482421875 -0.08203125000 -0.00781250000 0.00927734375 -0.04394531250 0.06591796875 -0.01464843750 -0.05126953125 -0.07128906250 -0.09863281250 0.25683593750 -0.25488281250 0.00976562500 0.04150390625 0.04492187500 0.09423828125 -0.12304687500 0.01220703125 0.14892578125 -0.03808593750 0.03955078125 -0.28417968750 -0.07226562500 0.04296875000 -0.07031250000 0.08691406250 0.12207031250 -0.06054687500 -0.06933593750 -0.17724609375 0.21630859375 -0.08984375000 -0.04736328125 -0.00634765625 0.00927734375 0.05908203125 0.10498046875 0.04003906250 -0.11865234375 -0.18017578125 0.23144531250 -0.13232421875 -0.04980468750 -0.03320312500 -0.38525390625 -0.06640625000 0.10742187500 -0.03369140625 0.16113281250 0.09960937500 0.02978515625 -0.09472656250 -0.11376953125 -0.08544921875 0.02441406250 -0.09912109375 0.00488281250 -0.03027343750 0.00048828125 0.08349609375 0.19726562500 -0.10351562500 -0.10205078125 -0.03271484375 -0.08642578125 -0.24169921875 -0.22900390625 -0.20654296875 -0.18017578125 0.14062500000 0.27490234375 -0.07324218750 0.02832031250 -0.14843750000 -0.00048828125 -0.16650390625 0.05175781250 -0.26611328125 -0.04638671875 0.12500000000 0.03320312500 0.17578125000 -0.18066406250 -0.03955078125 0.04736328125 0.04882812500 -0.27099609375 -0.01220703125 0.19775390625 0.08837890625 -0.01660156250 0.06542968750 -0.51318359375 0.03222656250 0.09765625000 0.03125000000 -0.10644531250 -0.14355468750 -0.04296875000 0.02148437500 0.18896484375 0.09423828125 -0.23339843750 0.08154296875 -0.15673828125 0.04003906250 -0.05615234375 -0.14453125000 -0.06005859375 0.01171875000 0.09033203125 0.08496093750 -0.08984375000 0.09179687500 0.00292968750 0.09667968750 -0.08398437500 -0.08203125000 0.01806640625 -0.15576171875 0.00000000000 -0.03369140625 0.01904296875 0.15625000000 -0.25634765625 0.18701171875 -0.02197265625 -0.24853515625 0.00146484375 -0.10009765625 0.08935546875 0.01806640625 0.04492187500 -0.13720703125 -0.04589843750 0.08593750000 -0.02539062500 -0.14355468750 0.09716796875 0.08691406250 -0.00195312500 -0.20507812500 0.13623046875 -0.01708984375 -0.21191406250 0.19091796875 -0.04296875000 -0.08642578125 0.22949218750 -0.14257812500 0.00000000000 -0.15722656250 0.00195312500 -0.12988281250 -0.17187500000 -0.04199218750 0.30712890625 0.03271484375 0.00439453125 -0.17578125000 0.21728515625 -0.10693359375 -0.18457031250 -0.12255859375 -0.07275390625 0.17626953125 0.20849609375 -0.04150390625 -0.03662109375 -0.18847656250 0.11230468750 -0.01562500000 0.00585937500 -0.18017578125 -0.12548828125 0.02197265625 -0.01025390625 0.03564453125 -0.04833984375 0.05615234375 0.06591796875 0.01074218750 0.11962890625 0.01562500000 -0.09716796875 0.02929687500 0.01757812500 -0.02490234375 -0.24707031250 0.07373046875 0.23583984375 -0.21679687500 0.07324218750 0.07373046875 -0.09423828125 -0.20458984375 -0.12207031250 -0.21728515625 -0.21337890625 0.05517578125 0.28173828125 -0.05078125000 0.04833984375 -0.09033203125 -0.38232421875 -0.15283203125 -0.23925781250 -0.15771484375 -0.16699218750 0.07080078125 0.09326171875 0.10009765625 0.10742187500 -0.19970703125 0.19287109375 -0.12597656250 -0.24560546875 -0.15234375000 0.12451171875 0.16845703125 -0.04638671875 0.10107421875 -0.12744140625 0.07763671875 0.08691406250 0.12646484375 -0.22314453125 -0.23095703125 0.11816406250 0.03759765625 0.16210937500 -0.07958984375 -0.27148437500 -0.16699218750 0.07519531250 -0.00292968750 0.11035156250 -0.13818359375 -0.05810546875 0.03417968750 0.21435546875 0.10058593750 -0.19091796875 0.04833984375 0.10498046875 -0.05273437500 -0.07373046875 -0.06347656250 -0.16601562500 0.00634765625 0.08886718750 -0.00927734375 0.00341796875 0.06689453125 -0.03808593750 0.21386718750 -0.10449218750 -0.11474609375 0.09863281250 -0.09863281250 0.05322265625 -0.09912109375 0.01757812500 -0.00195312500 -0.08642578125 -0.05712890625 0.05224609375 -0.12255859375 0.02636718750 0.08691406250 0.15429687500 -0.27343750000 -0.00634765625 -0.03613281250 -0.11523437500 0.00341796875 0.00341796875 -0.16943359375 0.06835937500 -0.07861328125 0.07617187500 0.11279296875 -0.00341796875 -0.10693359375 -0.05029296875 0.06787109375 0.13232421875 0.09472656250 0.22412109375 -0.18994140625 -0.06103515625 -0.01611328125 -0.16943359375 -0.17431640625 -0.15966796875 -0.03271484375 0.14794921875 0.05078125000 0.13916015625 -0.04394531250 0.11376953125 -0.02783203125 -0.12109375000 -0.20849609375 -0.00634765625 -0.06152343750 0.14892578125 0.02099609375 -0.10644531250 0.03417968750 0.09863281250 0.08789062500 0.07421875000 -0.00097656250 -0.09082031250 0.02197265625 -0.02880859375 -0.01611328125 -0.17285156250 0.07910156250 0.17480468750 -0.01513671875 0.00341796875 -0.11181640625 -0.08447265625 -0.14160156250 0.14892578125 -0.11816406250 -0.14746093750 0.04150390625 0.07812500000 -0.05859375000 0.15429687500 -0.05810546875 -0.01855468750 -0.36816406250 0.04199218750 -0.44140625000 -0.03222656250 0.01464843750 0.09423828125 0.17871093750 0.12988281250 0.02197265625 0.04785156250 0.02978515625 -0.29492187500 -0.21044921875 0.06689453125 0.02783203125 0.00146484375 0.20019531250 -0.09472656250 0.00537109375 0.14062500000 -0.01025390625 0.17529296875 -0.29541015625 0.25878906250 0.04003906250 -0.03759765625 0.14208984375 -0.28125000000 0.08691406250 0.07275390625 0.03710937500 0.04443359375 -0.03662109375 0.04833984375 -0.12207031250 0.13574218750 0.10839843750 -0.27050781250 -0.16406250000 0.11865234375 -0.00292968750 0.02294921875 -0.00292968750 0.02685546875 0.03369140625 0.09960937500 -0.05810546875 -0.05517578125 0.07226562500 0.01025390625 -0.01123046875 -0.26464843750 0.16357421875 -0.05761718750 -0.08349609375 0.11523437500 -0.00195312500 0.04492187500 -0.16259765625 -0.05273437500 -0.16015625000 0.01660156250 -0.03759765625 -0.08642578125 0.11035156250 0.16552734375 -0.00976562500 -0.03466796875 -0.11914062500 0.03613281250 -0.14990234375 0.01904296875 -0.02392578125 -0.13037109375 0.02392578125 0.25976562500 0.03759765625 0.00097656250 0.07568359375 -0.10449218750 -0.01708984375 0.04394531250 0.14599609375 0.03613281250 -0.23095703125 0.10595703125 -0.07421875000 -0.09716796875 -0.10546875000 -0.33447265625 -0.11425781250 0.16308593750 0.05224609375 -0.01562500000 0.07226562500 -0.04003906250 0.01708984375 0.00830078125 -0.06103515625 -0.12646484375 -0.12255859375 0.08544921875 0.00146484375 0.07128906250 0.03320312500 0.01171875000 -0.00781250000 -0.02539062500 -0.21191406250 -0.14355468750 -0.08935546875 -0.01416015625 0.01464843750 -0.03857421875 0.11669921875 -0.04541015625 0.02294921875 0.10253906250 -0.06884765625 -0.03417968750 -0.01708984375 -0.07226562500 -0.16992187500 0.05175781250 0.02294921875 0.01513671875 -0.06787109375 0.08740234375 -0.27929687500 -0.04003906250 -0.13183593750 0.26171875000 -0.46386718750 0.01513671875 -0.16455078125 0.18701171875 0.19189453125 -0.10449218750 0.06982421875 0.06689453125 -0.05468750000 0.00390625000 -0.18408203125 0.06005859375 -0.10205078125 -0.02832031250 0.25341796875 -0.07373046875 0.01806640625 0.05175781250 -0.04785156250 0.01855468750 -0.13281250000 -0.05175781250 0.06787109375 -0.04638671875 0.15722656250 0.03662109375 0.16894531250 0.05712890625 -0.00976562500 -0.21435546875 0.09619140625 0.03662109375 -0.12939453125 0.05371093750 0.17187500000 -0.15380859375 -0.03417968750 0.01708984375 -0.07666015625 -0.08447265625 0.13134765625 0.04296875000 -0.03222656250 -0.11035156250 0.09082031250 0.02001953125 -0.12646484375 0.12597656250 -0.02587890625 -0.13671875000 0.14013671875 0.01123046875 -0.00390625000 0.03271484375 0.19384765625 -0.12109375000 -0.18359375000 -0.09277343750 -0.10156250000 0.04638671875 0.00000000000 -0.01074218750 0.11035156250 0.04931640625 0.07617187500 -0.02099609375 -0.06250000000 0.03027343750 -0.19775390625 0.01513671875 0.04394531250 0.04589843750 0.06005859375 -0.01074218750 0.05957031250 0.07617187500 0.07177734375 -0.07617187500 -0.08740234375 -0.01611328125 0.12304687500 -0.10302734375 -0.10009765625 0.01025390625 0.01025390625 0.04736328125 -0.08398437500 -0.22558593750 -0.17187500000 0.04492187500 0.14990234375 0.01416015625 0.12890625000 -0.10449218750 -0.02685546875 0.08593750000 -0.19775390625 -0.24707031250 -0.06689453125 0.18896484375 0.02832031250 -0.06787109375 0.06884765625 0.01464843750 -0.15527343750 0.04394531250 -0.06152343750 -0.00292968750 -0.08691406250 0.18750000000 -0.12841796875 0.01757812500 0.12451171875 -0.00439453125 0.00048828125 -0.03369140625 -0.13427734375 -0.03466796875 -0.02636718750 0.03857421875 -0.09277343750 -0.07861328125 0.09130859375 0.21582031250 -0.14746093750 -0.02929687500 -0.09667968750 -0.01123046875 -0.14453125000 -0.19531250000 -0.34716796875 0.07714843750 -0.06933593750 0.21435546875 0.15771484375 -0.12451171875 -0.33251953125 0.21875000000 0.11376953125 0.09521484375 -0.36328125000 0.08251953125 -0.10986328125 -0.13281250000 0.29345703125 0.09716796875 0.11718750000 0.03417968750 -0.18310546875 0.17968750000 0.00000000000 0.09228515625 -0.05322265625 -0.20800781250 0.17773437500 0.00927734375 -0.15576171875 -0.07373046875 0.02050781250 -0.00390625000 0.07080078125 0.02685546875 -0.00195312500 -0.05029296875 0.17529296875 -0.07128906250 -0.06835937500 0.09619140625 -0.14306640625 -0.09082031250 0.20556640625 0.10498046875 -0.07226562500 -0.12255859375 0.14355468750 0.00878906250 -0.12500000000 -0.03759765625 -0.14746093750 -0.22460937500 0.05029296875 0.15917968750 0.16503906250 -0.10693359375 0.15429687500 -0.10595703125 -0.13037109375 -0.23046875000 -0.19140625000 0.03027343750 0.11816406250 0.04541015625 0.16894531250 -0.15380859375 0.12548828125 -0.01123046875 -0.02978515625 0.04052734375 -0.24755859375 0.07910156250 0.04443359375 0.00195312500 0.05566406250 -0.09472656250 -0.11132812500 0.15966796875 -0.04589843750 -0.06152343750 -0.02441406250 -0.05224609375 0.25683593750 0.01953125000 -0.20605468750 -0.09912109375 -0.06738281250 0.14257812500 0.02441406250 -0.11962890625 -0.06787109375 0.07568359375 0.03173828125 0.05175781250 0.02294921875 -0.34179687500 -0.13818359375 0.27587890625 -0.09228515625 -0.29492187500 -0.13916015625 0.21630859375 -0.03125000000 -0.14208984375 0.20263671875 0.03662109375 -0.20068359375 0.03466796875 -0.29101562500 -0.01318359375 -0.11474609375 0.35302734375 -0.06640625000 -0.06738281250 0.16601562500 0.12402343750 -0.13330078125 -0.05859375000 0.07226562500 -0.06591796875 -0.06054687500 0.12890625000 -0.03613281250 0.04492187500 -0.04394531250 -0.08203125000 0.00830078125 0.11132812500 -0.23925781250 0.09130859375 -0.25000000000 0.06201171875 -0.56054687500 -0.08691406250 0.00048828125 0.10253906250 0.44335937500 -0.04882812500 -0.24316406250 0.06103515625 -0.27001953125 0.13378906250 -0.23486328125 0.01855468750 0.01904296875 0.10644531250 0.35498046875 0.04296875000 -0.02197265625 0.08300781250 0.10644531250 -0.02880859375 -0.04736328125 -0.03320312500 -0.11572265625 0.03466796875 0.16943359375 -0.03466796875 0.04052734375 0.03076171875 -0.10742187500 0.00341796875 0.16943359375 0.14697265625 -0.13085937500 0.05664062500 -0.05224609375 -0.10595703125 -0.00781250000 0.07373046875 -0.17529296875 -0.01269531250 0.15625000000 0.12841796875 -0.04785156250 0.01513671875 0.22656250000 -0.22509765625 0.05810546875 -0.13037109375 -0.01855468750 -0.08886718750 0.02832031250 0.10205078125 -0.02587890625 -0.14013671875 0.20410156250 -0.11474609375 -0.09472656250 -0.15283203125 -0.18164062500 0.02148437500 -0.21826171875 0.15966796875 0.24951171875 -0.27050781250 0.22900390625 0.09570312500 -0.21435546875 -0.13769531250 -0.14599609375 -0.04687500000 0.24267578125 -0.03320312500 0.03417968750 -0.28808593750 0.18896484375 0.19042968750 -0.08203125000 0.05908203125 -0.14941406250 0.03222656250 0.13916015625 0.05517578125 0.00585937500 -0.29101562500 -0.06787109375 0.19287109375 -0.02441406250 -0.04638671875 -0.04248046875 0.08007812500 -0.09472656250 -0.15917968750 0.08691406250 -0.49658203125 -0.34960937500 0.52539062500 0.02099609375 0.05322265625 -0.06445312500 0.04980468750 -0.07812500000 -0.02294921875 0.20800781250 -0.11962890625 -0.17871093750 -0.06884765625 -0.25439453125 -0.03710937500 -0.14990234375 0.20751953125 0.04394531250 -0.04394531250 0.10449218750 0.14355468750 -0.02392578125 -0.18994140625 0.02734375000 -0.02587890625 -0.13085937500 0.16552734375 -0.16406250000 0.05761718750 0.09130859375 -0.07666015625 -0.08789062500 0.13916015625 -0.26269531250 0.20703125000 -0.21777343750 0.11425781250 -0.66015625000 0.13085937500 0.06591796875 0.14892578125 0.29833984375 -0.05810546875 -0.16162109375 -0.09228515625 0.01562500000 0.35449218750 -0.08935546875 -0.14501953125 -0.15869140625 0.02880859375 0.22753906250 0.16357421875 0.01074218750 0.09033203125 0.04492187500 -0.11328125000 0.07275390625 -0.17333984375 -0.21191406250 -0.01953125000 0.26464843750 0.06396484375 0.10253906250 0.13085937500 0.18847656250 -0.40380859375 0.08642578125 0.06494140625 -0.08398437500 -0.11621093750 0.07714843750 -0.20849609375 0.04443359375 0.17480468750 -0.22998046875 -0.06298828125 -0.10351562500 0.20410156250 0.26123046875 -0.02539062500 -0.01416015625 -0.18164062500 -0.10253906250 0.00781250000 -0.37792968750 -0.08056640625 0.13183593750 0.16748046875 0.17285156250 -0.11083984375 0.07226562500 -0.08740234375 -0.13525390625 0.01464843750 -0.23876953125 -0.11474609375 0.11474609375 0.05761718750 0.16503906250 -0.56738281250 0.16357421875 0.22802734375 -0.06689453125 -0.21435546875 -0.23095703125 -0.04003906250 0.20361328125 -0.07177734375 0.11962890625 -0.28906250000 0.13378906250 0.07324218750 -0.01806640625 0.04882812500 -0.15771484375 -0.12841796875 0.04248046875 -0.01513671875 0.08349609375 -0.17431640625 0.11914062500 0.13183593750 -0.04394531250 0.04443359375 0.05859375000 0.07617187500 0.05371093750 -0.08203125000 -0.05615234375 -0.30761718750 -0.08642578125 0.18945312500 -0.00927734375 -0.02880859375 0.02929687500 0.12695312500 -0.08789062500 -0.02001953125 0.11425781250 -0.19970703125 -0.25146484375 -0.09277343750 0.02978515625 -0.00048828125 -0.09521484375 0.10742187500 0.08056640625 -0.23876953125 -0.07226562500 -0.16015625000 -0.04345703125 0.16259765625 0.06298828125 -0.04150390625 -0.04833984375 0.14550781250 -0.27197265625 0.01855468750 0.04492187500 0.02978515625 0.08691406250 0.03808593750 -0.24707031250 0.06787109375 -0.29833984375 0.01513671875 -0.32812500000 0.26171875000 0.02246093750 0.14013671875 0.33496093750 -0.07128906250 -0.02294921875 0.02734375000 0.21093750000 -0.02929687500 0.00000000000 0.07763671875 -0.40869140625 0.03125000000 0.17529296875 0.02197265625 -0.34033203125 -0.01367187500 0.05615234375 -0.00195312500 -0.16015625000 -0.05224609375 0.17822265625 -0.01220703125 0.09423828125 0.17578125000 -0.15332031250 -0.11621093750 0.00781250000 -0.58398437500 -0.01855468750 -0.07714843750 0.34472656250 -0.43896484375 0.07421875000 0.23876953125 -0.06884765625 -0.06005859375 -0.48974609375 -0.19042968750 -0.45068359375 -0.01318359375 0.83203125000 -0.18798828125 -0.05419921875 0.01806640625 0.11328125000 -0.20361328125 -0.42773437500 0.02832031250 -0.02978515625 -0.02246093750 0.28564453125 -0.35937500000 -0.11279296875 0.06640625000 -0.01660156250 0.07910156250 -0.41308593750 0.11816406250 0.08007812500 0.01269531250 0.11474609375 -0.09765625000 -0.14257812500 -0.00292968750 -0.20117187500 0.10791015625 -0.51318359375 0.17919921875 0.08496093750 0.10058593750 0.15966796875 -0.22363281250 -0.09765625000 0.14501953125 -0.11425781250 -0.19287109375 -0.17675781250 0.02148437500 -0.25146484375 0.06689453125 0.42724609375 -0.24951171875 -0.00781250000 0.01318359375 -0.07080078125 -0.02294921875 0.07226562500 -0.07812500000 0.17773437500 -0.18505859375 -0.04345703125 -0.09033203125 -0.17968750000 0.04736328125 -0.07031250000 -0.02099609375 -0.00830078125 0.05371093750 0.34375000000 -0.32324218750 -0.06396484375 -0.07910156250 -0.17138671875 0.16015625000 -0.07666015625 -0.09375000000 -0.13818359375 0.23144531250 -0.01171875000 -0.17138671875 0.08105468750 -0.05273437500 0.07275390625 0.16308593750 -0.04150390625 0.00878906250 -0.09814453125 0.09228515625 0.00341796875 0.12451171875 0.06103515625 -0.03808593750 0.06347656250 0.03076171875 0.23535156250 -0.20117187500 -0.28320312500 0.03173828125 -0.37304687500 -0.23437500000 0.14648437500 -0.12060546875 -0.32031250000 -0.23535156250 -0.04052734375 -0.10400390625 -0.32763671875 0.19140625000 -0.39306640625 -0.50390625000 -0.02001953125 -0.21240234375 0.10058593750 -0.53271484375 0.04785156250 0.09033203125 -0.25195312500 -0.20996093750 -0.65625000000 -0.51025390625 0.06835937500 -0.34570312500 0.19921875000 -0.57373046875 0.05029296875 -0.04150390625 -0.23339843750 0.06494140625 -0.55175781250 -0.68408203125 0.21679687500 -0.61474609375 -0.00146484375 -0.61523437500 0.15722656250 -0.05029296875 -0.03320312500 0.14990234375 -0.01416015625 -0.28466796875 -0.13476562500 -0.81201171875 -0.16650390625 -0.10546875000 0.10986328125 -0.12011718750 0.18847656250 -0.03857421875 -0.21289062500 -0.31933593750 -0.10449218750 -0.86083984375 -0.07275390625 -0.07177734375 0.23925781250 -0.38476562500 0.32177734375 0.24658203125 -0.25927734375 -0.63916015625 -0.41894531250 -0.93554687500 0.32275390625 -0.17773437500 0.32080078125 -0.31933593750 0.27539062500 -0.00634765625 -0.27148437500 -0.84912109375 -0.25097656250 -0.91601562500 0.04882812500 -0.13134765625 0.13183593750 0.03515625000 0.18115234375 0.04394531250 -0.47216796875 -0.34130859375 -0.02050781250 -0.56250000000 -0.15283203125 -0.08789062500 0.21044921875 -0.09082031250 -0.37207031250 0.08447265625 -0.43066406250 0.08593750000 0.16259765625 -0.27636718750 -0.18408203125 -0.11279296875 0.49121093750 -0.07177734375 -0.54394531250 -0.45117187500 -0.92382812500 0.18701171875 0.11474609375 -0.08398437500 -0.02490234375 -0.05615234375 0.15380859375 -0.23388671875 -0.39257812500 0.16113281250 -0.46435546875 -0.05957031250 -0.28662109375 -0.03125000000 0.06152343750 0.22070312500 0.12207031250 -0.40185546875 -0.31494140625 -0.09375000000 -0.48291015625 -0.34814453125 0.07275390625 0.01562500000 -0.14062500000 0.25585937500 0.08349609375 0.09082031250 -0.47998046875 -0.14111328125 0.07031250000 -0.31347656250 0.07031250000 -0.11523437500 -0.00195312500 -0.32421875000 0.01416015625 0.17285156250 -0.64501953125 0.11474609375 0.17431640625 -0.29052734375 0.00830078125 -0.30468750000 0.14355468750 -0.36425781250 -0.07031250000 0.01416015625 -0.27929687500 0.12744140625 0.62792968750 -0.32958984375 -0.08251953125 -0.38330078125 -0.08251953125 -0.27392578125 -0.08837890625 -0.01513671875 -0.17675781250 0.14697265625 0.13085937500 -0.36328125000 0.02294921875 -0.96777343750 -0.08593750000 -0.27490234375 0.05566406250 0.19140625000 -0.10156250000 -0.01708984375 -0.13671875000 -0.10107421875 0.08886718750 -0.82080078125 0.00292968750 -0.18505859375 0.15332031250 -0.13183593750 0.14208984375 -0.05322265625 -0.25878906250 0.04980468750 0.03564453125 -0.89599609375 -0.17236328125 -0.21777343750 0.24902343750 -0.32031250000 0.19287109375 -0.04589843750 -0.05468750000 -0.10693359375 -0.08935546875 -0.71533203125 -0.63330078125 -0.14062500000 0.11230468750 -0.23046875000 0.15136718750 -0.15185546875 -0.08398437500 -0.03466796875 -0.06201171875 -0.30224609375 -0.14453125000 -0.18164062500 -0.11181640625 0.14062500000 -0.19580078125 -0.04931640625 0.01464843750 0.13183593750 0.09228515625 -0.35107421875 0.06542968750 -0.11669921875 -0.21093750000 -0.01123046875 -0.09423828125 0.23291015625 0.03515625000 0.21533203125 -0.00097656250 -0.45458984375 0.02392578125 -0.07568359375 0.08349609375 -0.22167968750 -0.06250000000 -0.06933593750 0.30761718750 0.11474609375 -0.12402343750 -0.48876953125 -0.08984375000 0.06152343750 0.09765625000 -0.36669921875 -0.57080078125 0.03564453125 0.22070312500 0.03662109375 -0.01513671875 -0.63232421875 -0.15820312500 0.13183593750 0.03417968750 0.00048828125 -0.83886718750 0.01904296875 -0.26074218750 0.14306640625 0.12695312500 -0.71240234375 -0.19775390625 0.07324218750 0.11376953125 -0.49267578125 -0.40039062500 -0.09326171875 -0.28906250000 -0.32714843750 0.01660156250 -0.15332031250 0.10937500000 -0.36279296875 -0.06787109375 -0.15283203125 -0.53271484375 0.11083984375 -0.05712890625 -0.44824218750 0.19189453125 -0.23095703125 0.13134765625 -0.53710937500 -0.21972656250 -0.07373046875 -0.37792968750 0.22363281250 0.17431640625 -0.21679687500 0.10449218750 -0.26904296875 0.08300781250 -0.28515625000 -0.22167968750 0.03515625000 -0.14355468750 0.31738281250 0.33593750000 -0.19335937500 -0.21191406250 -0.45605468750 -0.23242187500 -0.14453125000 -0.14794921875 -0.02929687500 0.05029296875 -0.02099609375 0.41552734375 -0.03222656250 -0.14208984375 -0.29248046875 -0.20263671875 -0.21191406250 0.25146484375 -0.02929687500 0.05224609375 -0.18212890625 -0.04492187500 0.05615234375 0.05322265625 -0.29345703125 -0.49951171875 -0.30029296875 0.31347656250 -0.07421875000 0.15039062500 -0.09033203125 -0.26464843750 0.09570312500 0.00781250000 -0.32421875000 -0.41259765625 -0.26220703125 0.29882812500 -0.12109375000 -0.03027343750 -0.11816406250 -0.15527343750 0.12841796875 0.05957031250 -0.16748046875 -0.30615234375 -0.23730468750 0.07763671875 -0.10498046875 -0.05664062500 0.00634765625 0.21533203125 0.21533203125 -0.30322265625 -0.07861328125 -0.02441406250 -0.13134765625 -0.12060546875 -0.16308593750 -0.08056640625 0.29296875000 0.22802734375 0.15527343750 -0.33935546875 -0.12792968750 -0.01220703125 -0.05957031250 -0.16601562500 -0.28759765625 -0.03222656250 0.29345703125 0.17626953125 0.21972656250 -0.13037109375 -0.52197265625 -0.08935546875 0.07617187500 -0.12646484375 -0.40234375000 -0.53710937500 0.21484375000 -0.07177734375 0.33398437500 0.18994140625 -0.80712890625 -0.04296875000 0.11914062500 -0.05322265625 -0.27587890625 -0.85693359375 -0.02294921875 -0.29736328125 0.05175781250 0.26220703125 -0.21435546875 -0.03125000000 0.09277343750 -0.04980468750 -0.06738281250 -0.35205078125 0.01367187500 -0.20800781250 -0.05712890625 0.12744140625 -0.44970703125 0.02197265625 -0.52490234375 -0.18359375000 0.10058593750 -0.11328125000 0.00000000000 -0.18750000000 -0.12060546875 0.19580078125 -0.44189453125 0.10498046875 0.05810546875 -0.09521484375 -0.09326171875 -0.04248046875 0.11816406250 -0.34326171875 -0.28662109375 0.06787109375 -0.64257812500 0.06005859375 0.07763671875 0.01562500000 -0.10742187500 -0.18750000000 0.14550781250 0.01171875000 -0.20361328125 -0.07324218750 -0.29785156250 -0.06542968750 0.00244140625 -0.13574218750 -0.25488281250 -0.12597656250 0.21386718750 0.36474609375 -0.06103515625 -0.12255859375 0.00292968750 -0.27392578125 -0.15283203125 0.27294921875 -0.01269531250 0.08203125000 -0.18945312500 0.19433593750 0.02685546875 -0.18750000000 -0.10498046875 -0.47460937500 -0.28906250000 0.26855468750 0.02685546875 0.27832031250 -0.15673828125 -0.21435546875 0.17236328125 -0.15332031250 -0.04345703125 -0.23925781250 -0.39453125000 0.34472656250 0.09179687500 0.18847656250 -0.10302734375 -0.14257812500 0.19482421875 -0.33935546875 -0.11425781250 -0.26611328125 -0.24560546875 0.12500000000 -0.25878906250 -0.02490234375 0.17773437500 0.35839843750 0.30078125000 -0.32812500000 -0.09130859375 -0.33740234375 -0.21386718750 0.15380859375 -0.07031250000 -0.31445312500 0.13769531250 0.39697265625 0.40332031250 -0.31835937500 -0.39160156250 -0.30712890625 -0.06835937500 0.04833984375 -0.18945312500 -0.16894531250 0.10351562500 -0.23583984375 0.42187500000 -0.04589843750 -0.34472656250 -0.16455078125 -0.10351562500 -0.00390625000 -0.24707031250 -0.58105468750 0.07373046875 -0.28173828125 0.43164062500 0.14746093750 -0.37988281250 -0.14013671875 -0.12207031250 0.22851562500 -0.20849609375 -0.80224609375 -0.04443359375 -0.39355468750 0.38378906250 -0.03564453125 -0.33105468750 -0.14550781250 -0.00146484375 0.12402343750 -0.37548828125 -0.59277343750 -0.81982421875 -0.24658203125 -0.11767578125 0.03173828125 -0.38525390625 0.17675781250 -0.44580078125 0.13574218750 -0.05224609375 -0.17041015625 -0.11669921875 -0.54052734375 -0.07763671875 0.08105468750 -0.47607421875 -0.03564453125 -0.05810546875 0.10058593750 -0.14648437500 -0.25048828125 0.08544921875 -0.56396484375 -0.12597656250 0.07177734375 -0.35253906250 -0.08789062500 0.11914062500 0.04003906250 -0.11767578125 -0.16601562500 0.13330078125 -0.25732421875 -0.07128906250 -0.04980468750 -0.22460937500 0.09765625000 -0.05566406250 -0.10009765625 -0.02734375000 0.08642578125 0.18017578125 -0.07470703125 0.24951171875 -0.07861328125 -0.30371093750 -0.11376953125 -0.08984375000 0.13964843750 0.05273437500 0.09765625000 -0.06835937500 -0.09765625000 0.46972656250 -0.15283203125 -0.44628906250 -0.17089843750 -0.23291015625 0.15136718750 0.14257812500 0.06250000000 0.00097656250 -0.34423828125 0.24609375000 -0.09423828125 -0.08105468750 -0.18750000000 -0.31005859375 0.27636718750 0.10498046875 0.11914062500 -0.14990234375 -0.30126953125 0.08007812500 -0.22070312500 0.10498046875 0.03857421875 -0.25927734375 0.07958984375 -0.15917968750 0.11328125000 0.03320312500 0.16015625000 0.27539062500 -0.33886718750 -0.28515625000 -0.06738281250 -0.03906250000 -0.07519531250 -0.24902343750 -0.14697265625 0.25830078125 0.10449218750 0.56787109375 -0.10839843750 -0.64404296875 -0.04980468750 -0.03955078125 0.12939453125 -0.37646484375 -0.36816406250 0.13964843750 -0.32666015625 0.58447265625 -0.04589843750 -0.65625000000 -0.16162109375 -0.01562500000 0.05615234375 -0.11914062500 -0.49951171875 -0.10253906250 -0.38867187500 0.49755859375 0.14697265625 -0.36132812500 -0.27050781250 -0.18457031250 0.12939453125 -0.28125000000 -0.81201171875 -0.44677734375 -0.60058593750 0.36328125000 0.18359375000 -0.29785156250 -0.07128906250 -0.06005859375 0.00878906250 -0.52636718750 -0.54492187500 -0.22705078125 -0.38232421875 -0.37353515625 0.29980468750 -0.23046875000 -0.08886718750 -0.63183593750 0.25341796875 -0.06542968750 -0.30957031250 -0.20654296875 -0.54589843750 -0.28955078125 0.09033203125 -0.35644531250 -0.21826171875 -0.09423828125 0.15039062500 -0.02441406250 -0.17578125000 0.05419921875 -0.58593750000 -0.25927734375 0.07128906250 -0.48339843750 -0.04101562500 0.08105468750 0.04882812500 -0.22998046875 -0.15966796875 0.19091796875 -0.24023437500 0.26318359375 0.01269531250 -0.58349609375 0.07226562500 0.06835937500 -0.19580078125 -0.25585937500 0.10595703125 0.26220703125 -0.16992187500 0.22705078125 -0.03125000000 -0.26806640625 0.08935546875 -0.09375000000 0.10058593750 -0.27001953125 0.09423828125 0.14843750000 -0.27148437500 0.17236328125 -0.09326171875 -0.05957031250 -0.09619140625 -0.09179687500 0.15185546875 0.01269531250 0.12548828125 0.14697265625 -0.44628906250 0.31640625000 -0.12890625000 -0.09570312500 -0.17431640625 -0.32861328125 0.22753906250 -0.22949218750 0.01953125000 -0.01562500000 -0.21679687500 0.29541015625 -0.07519531250 -0.21679687500 -0.14404296875 -0.22656250000 0.04785156250 -0.32617187500 0.00585937500 0.00585937500 -0.14648437500 0.31005859375 -0.00585937500 -0.18554687500 0.02734375000 -0.27978515625 -0.00292968750 -0.17773437500 0.02099609375 0.09619140625 -0.26855468750 0.16162109375 -0.06494140625 -0.03808593750 0.03710937500 -0.11767578125 0.12646484375 -0.24169921875 -0.14013671875 -0.11279296875 -0.43652343750 0.31201171875 0.06201171875 -0.14501953125 -0.19042968750 -0.13574218750 0.20117187500 -0.44433593750 -0.29101562500 -0.28466796875 -0.59570312500 0.27441406250 0.10888671875 -0.20898437500 -0.38867187500 0.06396484375 0.08496093750 -0.31005859375 -0.73144531250 -0.44824218750 -0.42968750000 0.28759765625 0.15527343750 -0.16455078125 -0.25146484375 -0.00781250000 0.07470703125 -0.02343750000 -0.35693359375 -0.12158203125 -0.37744140625 -0.44335937500 0.24218750000 0.06347656250 -0.09765625000 -0.25732421875 0.21240234375 0.03417968750 -0.18212890625 -0.30273437500 -0.25634765625 -0.44238281250 0.10546875000 0.28466796875 -0.17089843750 -0.13183593750 0.08251953125 0.06152343750 -0.03076171875 0.04003906250 -0.14794921875 -0.33349609375 0.01757812500 0.23925781250 -0.30468750000 0.04833984375 -0.14648437500 -0.00097656250 -0.23876953125 0.13232421875 -0.00292968750 0.04443359375 0.05908203125 -0.03710937500 -0.22412109375 -0.08496093750 -0.24072265625 -0.06933593750 -0.12158203125 0.09326171875 0.06298828125 0.03173828125 0.03613281250 0.18261718750 -0.16064453125 -0.25439453125 0.07177734375 -0.12939453125 0.01025390625 0.07519531250 -0.36328125000 0.12158203125 -0.10742187500 0.07519531250 -0.13281250000 -0.06640625000 -0.04150390625 0.05615234375 0.12597656250 -0.07177734375 -0.61523437500 0.12060546875 0.02099609375 -0.04345703125 0.08203125000 -0.05664062500 0.03759765625 0.01757812500 0.06933593750 -0.08349609375 -0.42871093750 -0.00390625000 -0.07324218750 -0.02197265625 0.19482421875 -0.06054687500 -0.01757812500 -0.10546875000 0.00634765625 0.02441406250 -0.04589843750 0.03125000000 -0.13525390625 0.01171875000 0.09912109375 -0.16455078125 -0.18261718750 0.06005859375 0.00244140625 0.19921875000 -0.08935546875 0.05517578125 -0.08251953125 -0.02734375000 0.04638671875 -0.04638671875 0.08105468750 0.07714843750 -0.11230468750 0.05810546875 -0.28320312500 0.01074218750 -0.00097656250 -0.05517578125 -0.08349609375 0.07714843750 0.13818359375 -0.18847656250 -0.24072265625 -0.10644531250 -0.36181640625 0.22851562500 0.08056640625 -0.17724609375 -0.34814453125 -0.00781250000 0.06005859375 -0.14160156250 -0.47167968750 -0.10791015625 -0.55273437500 0.48437500000 0.28759765625 -0.22802734375 -0.36425781250 -0.41357421875 0.11181640625 -0.44433593750 -0.33203125000 0.12353515625 -0.40039062500 -0.08154296875 0.14501953125 -0.00488281250 -0.17724609375 0.29687500000 0.08300781250 0.15869140625 -0.02929687500 0.00732421875 -0.25830078125 -0.17675781250 0.09472656250 0.09960937500 -0.20605468750 0.14208984375 -0.16455078125 0.03906250000 0.03076171875 0.17968750000 -0.07080078125 -0.23535156250 0.06103515625 0.29199218750 -0.15820312500 -0.02832031250 -0.34716796875 -0.01855468750 -0.15625000000 0.19140625000 0.10156250000 -0.00732421875 -0.00292968750 0.17578125000 0.00048828125 -0.17333984375 -0.25146484375 0.02929687500 -0.12695312500 -0.16406250000 0.14794921875 -0.01220703125 -0.07714843750 0.09667968750 0.09423828125 -0.08886718750 -0.08300781250 0.08251953125 -0.19091796875 -0.13867187500 -0.13378906250 0.06250000000 -0.02246093750 0.03222656250 0.17773437500 0.02392578125 -0.00976562500 0.06445312500 -0.06884765625 -0.04638671875 -0.40283203125 0.07421875000 -0.09277343750 0.09521484375 0.13085937500 -0.13378906250 0.10546875000 -0.06591796875 -0.04199218750 0.00830078125 -0.33544921875 0.06884765625 -0.18652343750 0.07373046875 0.14892578125 -0.02099609375 -0.19091796875 -0.15576171875 -0.19873046875 -0.04687500000 0.11132812500 -0.02392578125 -0.13427734375 0.04931640625 0.18847656250 0.14208984375 -0.38281250000 -0.21533203125 -0.17773437500 0.05712890625 0.14648437500 -0.05957031250 -0.10058593750 0.10351562500 0.11816406250 0.10351562500 -0.27294921875 -0.14746093750 -0.14843750000 0.13867187500 -0.01171875000 -0.00927734375 -0.03222656250 0.19726562500 0.08642578125 -0.00146484375 -0.11328125000 -0.11376953125 -0.12646484375 -0.07275390625 -0.23437500000 0.03808593750 0.18750000000 0.15234375000 -0.16748046875 -0.12500000000 -0.08349609375 -0.09423828125 -0.24072265625 -0.09619140625 -0.35693359375 0.16064453125 0.23535156250 0.12451171875 -0.23437500000 -0.32519531250 0.03173828125 -0.11279296875 -0.28369140625 0.12744140625 -0.49169921875 0.04394531250 -0.05273437500 0.02197265625 -0.24365234375 0.18847656250 -0.03417968750 0.04687500000 -0.02685546875 -0.11718750000 -0.36767578125 0.03271484375 0.06347656250 0.05371093750 -0.15722656250 0.13134765625 -0.11035156250 -0.12060546875 -0.07421875000 0.02685546875 -0.10888671875 0.07910156250 0.01318359375 0.06738281250 -0.10546875000 0.10986328125 -0.18261718750 -0.15185546875 -0.26611328125 -0.09375000000 0.14404296875 0.10742187500 -0.08447265625 -0.00878906250 0.07373046875 0.01757812500 -0.22314453125 -0.11474609375 -0.15039062500 -0.11767578125 0.18164062500 -0.02636718750 -0.13330078125 0.14453125000 0.12792968750 -0.02148437500 -0.00830078125 0.05273437500 0.00048828125 -0.10937500000 -0.36425781250 0.03857421875 -0.07861328125 0.16796875000 -0.01513671875 -0.14648437500 0.16259765625 0.18310546875 0.01367187500 -0.17187500000 -0.37597656250 0.08886718750 -0.22802734375 0.10205078125 -0.05468750000 -0.08496093750 -0.00390625000 -0.02441406250 -0.08642578125 0.00000000000 -0.32470703125 -0.01611328125 -0.10205078125 0.12451171875 -0.02685546875 0.03076171875 -0.29150390625 -0.12353515625 -0.06640625000 -0.19140625000 0.14990234375 0.01074218750 -0.20898437500 0.07666015625 -0.00244140625 0.12060546875 -0.34472656250 -0.50390625000 -0.15136718750 -0.08740234375 0.22607421875 0.06494140625 -0.13037109375 0.00292968750 -0.17382812500 0.14111328125 -0.03759765625 -0.32519531250 -0.25585937500 0.06347656250 -0.04736328125 0.06689453125 -0.07275390625 0.09716796875 -0.16357421875 0.04882812500 -0.03955078125 0.03662109375 -0.25927734375 -0.02246093750 -0.36376953125 0.08447265625 0.18310546875 0.13623046875 -0.17089843750 -0.07421875000 -0.16357421875 -0.24414062500 -0.24853515625 0.18164062500 -0.30371093750 0.06738281250 0.08691406250 0.11230468750 -0.29882812500 -0.12353515625 -0.12939453125 -0.00634765625 -0.20751953125 0.03710937500 -0.21533203125 0.06396484375 0.03417968750 -0.07617187500 -0.18261718750 0.12646484375 -0.16894531250 -0.10839843750 -0.22705078125 0.20458984375 -0.21191406250 0.10595703125 0.11230468750 -0.04248046875 -0.16357421875 0.08691406250 -0.20898437500 -0.24511718750 -0.23144531250 0.17431640625 0.06201171875 0.02539062500 0.05810546875 -0.00634765625 -0.12890625000 0.07226562500 -0.22705078125 -0.34472656250 -0.03271484375 0.02246093750 0.23876953125 -0.06152343750 -0.18310546875 -0.00683593750 -0.02783203125 0.10351562500 -0.03417968750 -0.02636718750 0.02929687500 -0.48291015625 0.22656250000 -0.08789062500 -0.14111328125 0.12158203125 0.04052734375 -0.04199218750 -0.06445312500 -0.10595703125 0.05468750000 -0.37402343750 0.09082031250 -0.11621093750 0.00097656250 0.06787109375 0.08300781250 -0.00927734375 0.00244140625 -0.07568359375 0.10107421875 -0.26318359375 -0.10107421875 -0.10156250000 -0.07421875000 0.04882812500 0.06591796875 0.05468750000 0.08447265625 -0.10986328125 -0.02001953125 -0.25195312500 -0.02929687500 -0.01953125000 -0.06201171875 -0.02636718750 -0.01708984375 0.13623046875 -0.13281250000 -0.13134765625 -0.08105468750 -0.26025390625 0.16992187500 0.06152343750 -0.04394531250 -0.10449218750 0.03466796875 0.11816406250 -0.35449218750 -0.27832031250 -0.11376953125 0.09521484375 0.06054687500 0.04101562500 -0.11669921875 -0.00146484375 -0.03417968750 0.03271484375 -0.23730468750 -0.20751953125 -0.20410156250 0.29882812500 -0.03857421875 0.01904296875 -0.05126953125 0.02441406250 -0.14892578125 0.02050781250 -0.06298828125 -0.00585937500 -0.12402343750 0.27050781250 -0.35009765625 -0.03271484375 0.04003906250 0.08593750000 -0.13769531250 0.00488281250 -0.10351562500 -0.16601562500 -0.02880859375 0.06494140625 -0.36962890625 0.03417968750 0.08740234375 0.04687500000 -0.11181640625 -0.02343750000 -0.05566406250 0.02539062500 0.04345703125 0.10937500000 -0.46093750000 0.17041015625 0.02246093750 -0.00390625000 -0.04541015625 -0.03173828125 -0.00439453125 -0.04980468750 -0.02001953125 0.20849609375 -0.23730468750 0.12646484375 -0.03271484375 0.03857421875 -0.17187500000 -0.06103515625 -0.12207031250 -0.21435546875 -0.24267578125 0.29785156250 0.09912109375 0.08105468750 -0.08642578125 0.02441406250 -0.23779296875 0.01757812500 -0.29589843750 -0.43554687500 -0.20263671875 0.13476562500 0.24365234375 0.08203125000 -0.06152343750 0.02197265625 -0.09472656250 0.05175781250 -0.08837890625 -0.37792968750 -0.01318359375 -0.29248046875 0.20556640625 0.05517578125 -0.03076171875 0.00292968750 -0.02246093750 0.00878906250 -0.09423828125 -0.35058593750 0.06591796875 -0.40136718750 0.13671875000 0.01953125000 -0.04638671875 0.03662109375 0.04345703125 0.05810546875 -0.17089843750 -0.16601562500 0.07861328125 -0.44238281250 -0.00195312500 -0.11083984375 0.00732421875 -0.01708984375 0.04589843750 0.11718750000 -0.13037109375 -0.12792968750 0.01611328125 -0.29882812500 0.04833984375 -0.15332031250 -0.01367187500 0.13281250000 0.03466796875 0.06542968750 -0.08447265625 0.01855468750 -0.07080078125 -0.39306640625 0.13183593750 -0.11279296875 -0.12011718750 0.14843750000 0.03662109375 0.02880859375 -0.21728515625 -0.10253906250 -0.16357421875 -0.17236328125 0.28222656250 -0.11474609375 -0.18164062500 0.08691406250 -0.04052734375 0.08154296875 -0.13183593750 -0.21923828125 -0.28076171875 0.12011718750 0.10937500000 -0.09179687500 -0.05566406250 0.08984375000 -0.04052734375 0.05859375000 -0.03906250000 -0.14892578125 -0.23046875000 0.17578125000 -0.04003906250 -0.08007812500 -0.00390625000 0.09375000000 -0.04052734375 0.05078125000 -0.12255859375 -0.28564453125 -0.08007812500 0.10351562500 -0.54541015625 -0.08740234375 0.20654296875 0.00976562500 0.10400390625 0.08203125000 -0.07568359375 -0.04443359375 0.04492187500 0.00000000000 -0.41455078125 -0.02148437500 0.03710937500 -0.07177734375 0.17041015625 0.08789062500 0.02880859375 -0.08251953125 0.00097656250 0.01367187500 -0.26904296875 0.06250000000 0.02734375000 0.00488281250 0.00976562500 -0.00634765625 -0.16455078125 0.01074218750 -0.13964843750 0.03222656250 0.05029296875 0.05566406250 0.02148437500 -0.02880859375 -0.01367187500 0.05078125000 -0.20214843750 -0.05175781250 -0.01855468750 -0.16162109375 0.10302734375 -0.00732421875 -0.03125000000 0.01464843750 -0.00195312500 0.04980468750 -0.00488281250 -0.06738281250 0.05273437500 -0.35986328125 0.06738281250 0.00585937500 -0.02636718750 -0.00683593750 -0.01220703125 0.07812500000 -0.07714843750 -0.39160156250 0.14355468750 -0.30761718750 0.00683593750 0.03759765625 -0.03222656250 -0.06835937500 -0.00341796875 0.09326171875 -0.06933593750 -0.37744140625 0.23144531250 -0.39355468750 0.00683593750 -0.06445312500 -0.09326171875 0.02978515625 0.15771484375 0.03613281250 -0.18164062500 -0.51660156250 0.18066406250 -0.34765625000 0.00830078125 